solver_type L2R_L2LOSS_SVC
nr_class 2
label 1 2
nr_feature 6816
bias 1
w
-0.003729587225080775 
0.004702202184294211 
0.005295966623692913 
0.003430810057879176 
0.004054401102168755 
-0.001965155076381783 
-0.003749801934124085 
0.003032924050551156 
0.002688208243740246 
-0.0008927455096576021 
0.002907405779744862 
-0.001372658470816486 
0.007615805625650605 
-0.002819313244500212 
-0.008479980798729372 
-0.00525477849768598 
0.004802401973809667 
0.001169925863715745 
0.007377567937048455 
-0.001119241764345323 
-0.00275146838975368 
-0.00622180381126809 
-0.001042887941715957 
-0.001664204563056564 
0.00127725963612683 
-0.005608352619157354 
0.004178177352765777 
-0.004921867686562365 
-0.001100751411364162 
-0.005698410612708863 
0.001789734885330496 
0.0009332301798357739 
-0.003211315317132316 
-0.002956776366331959 
-0.002024628874798534 
-0.006273992108740438 
0.005247664244209147 
-0.00773024548764109 
0.00690016887316323 
-0.003327863116877706 
0.004269453808009076 
0.003399847116217108 
0.0004880638352311249 
0.006080813691367021 
-0.007593820833000598 
0.005730952005063789 
0.002803866470233265 
0.001184774826874276 
0.002988118734846125 
0.005280382035062167 
0.00357710398981218 
-5.692452425422015e-05 
-0.001159568647767762 
0.009813431180234054 
-0.006629486884272047 
-0.0006841577358804712 
-0.007326420925255763 
0.002389619429315123 
-0.00681434862270394 
0.004998201974151446 
0.005690975537500786 
-0.005858919736667578 
-0.001909583426559222 
-0.005921692138404053 
-0.003322880466739407 
-0.005712135290563841 
-0.007038104140396487 
-0.007014871291926498 
0.00282255985156843 
-0.006554696253622482 
0.006461307584297052 
0.002473204096081528 
-0.004222864291958038 
0.0006074154477982791 
0.004224725174626356 
-0.0053995982629969 
0.008413019151338998 
0.007892064528380691 
0.006340437681185976 
0.001853089450705308 
-0.001479687311939543 
-0.002951689383528259 
0.0004263046314795679 
-0.004330974776598951 
-0.003215456940051193 
-0.003087597015628677 
-0.007979917006165125 
0.0001261421286350892 
0.009313691416646471 
0.002208265639858542 
0.008253739179890139 
0.003274435462023711 
-0.006790135523406527 
0.001149367129006525 
-0.00669785291639931 
-0.00223226409668596 
0.006114281394512763 
0.003437936022661254 
-0.004471735699939067 
0.004460396386567813 
0.002821391442343041 
0.004754026605195285 
-0.009486891221974646 
-0.003291221358442713 
-0.003189009556967183 
0.005689302521662669 
-0.006153464797753758 
-0.006202677548990496 
-0.001711005174169783 
0.00333314574165202 
-0.005724420498360824 
-0.005361925958294946 
0.003018936281382492 
-0.005369549677847265 
-0.004784001909646539 
0.001508341085493922 
-0.005949645323212698 
0.005593523871363895 
0.005777963808428445 
-0.005924238399699675 
-0.003788486537810347 
-0.00881853820838783 
0.001672105369175309 
-0.001062040639470951 
0.00383106128721779 
0.00169613682175485 
-0.0002411487983615973 
-0.004427524647934639 
0.003697050837972488 
-0.002999062050597279 
0.002268628234013622 
-0.006753624095762688 
0.003907565631706066 
0.01027439437480269 
0.008469416521073296 
0.0005318207704408745 
0.002633024306153784 
-5.891573771369221e-05 
-0.001099356939931298 
0.007725233534942363 
-0.001574479053946917 
-0.0006420466035173977 
-0.004385961565781344 
0.005967934591624958 
-0.003963601554600468 
-0.003344334071515402 
-0.002840874097619263 
-0.003380076197610117 
0.0006432698274826902 
0.007560559948589811 
-0.004626694296941653 
-0.005733123601780816 
0.0004019366611040773 
0.008313667240885452 
-0.001320200570350357 
-0.007257863041538838 
-0.005518183538287212 
0.002311964631316347 
-0.002204108272280331 
-0.006751155197114164 
0.004982974556033369 
-0.008003864438633591 
-0.007178751959740924 
0.00653852687724351 
-0.01113892389990573 
-0.003869057013463563 
-0.00217959189391223 
-0.008583532645654883 
-0.002061860231849882 
-0.004612124266945397 
-0.004253424772914538 
0.002057459405187526 
-0.002091702484210838 
-0.004881987727929723 
-0.00608201514493916 
-0.005235075125611317 
0.00864553861292526 
-0.008138450758512958 
0.002486272394153209 
0.006100261844457665 
0.004802507715719268 
-0.004078443488539501 
-0.005306683391290317 
0.002071769162358496 
0.002126621806071471 
0.008077347485044394 
0.00812414935961793 
-0.003302648530900621 
-0.006024261013202997 
-0.01092158909316528 
0.00490123533099237 
-0.001018281760476099 
-0.003030748177506903 
-0.01037737883085665 
0.01199101747667705 
-0.004817167354208771 
-0.004127927980933631 
0.003909257016313407 
0.00276998240831847 
0.007676476212555249 
-0.01051707575052872 
0.003859151387389625 
-0.009260462222251487 
-0.005935021061612069 
0.005109048360622088 
-0.006830225070667895 
-0.01218946238540843 
0.006740055989797752 
0.01327297563015475 
-0.01233048418900667 
0.001293397911944154 
-0.01126765864911115 
-0.006425893471938461 
0.00663477553478018 
-0.005093423146882691 
0.005701070585433008 
-8.042896809772085e-05 
0.007589089465681483 
0.005688451143787573 
-0.008325618797969512 
0.007495354316661451 
0.005065145544340362 
0.009636760163469014 
-0.00331542235767786 
0.004515478299733682 
-0.006224868577239927 
-0.007778694039764599 
0.000928205689723133 
-0.004767183697800199 
-0.006464546027467838 
-0.006154887065313594 
-0.008278465681427871 
0.007984400152126592 
-0.004001610231314489 
-0.0006708144286626931 
0.008302149536636374 
0.001172483593343475 
-0.005000085113159193 
0.008557205631463375 
0.004311529757861785 
0.005324992291932116 
0.000651617218228841 
0.001069584469455538 
-0.00330541541180543 
0.008886934563562699 
0.006619084329536537 
0.00531296376095798 
0.008075938435223258 
-0.003787447001537284 
0.008422863645371448 
0.009816295930718796 
0.008337127560807117 
0.004449536070440556 
0.004879524952204273 
-0.00585133547595285 
0.005446884723196604 
-0.001727615012253085 
0.003489785275417018 
0.006514641062762809 
-0.006674229512907508 
-0.005612813800347158 
0.008242645609550528 
-0.002342510533884574 
0.005563341942556196 
-0.00561089722823564 
0.00258463686177445 
-0.007394607740396532 
-0.009364184344752018 
-0.00234866125308587 
-0.008323684343035046 
-0.008938811466661553 
-0.008938209670793677 
-0.004547371828513792 
0.006571367515315037 
0.003677628391439831 
0.005725844515327252 
-0.009602422422111187 
-0.006039113086417693 
-0.009421679564312467 
0.0007436447520359232 
-0.00118999495895753 
-0.009048697137345059 
0.003767364980124564 
-0.006829967519141753 
-0.007062051184107932 
-0.0003739514038412335 
0.008927317087833711 
4.400467062112182e-05 
-0.0007439573126804792 
0.006528165919509203 
-0.002787247982306255 
0.007100390401478711 
-0.004182330444016761 
-0.0004666372976626883 
-0.0003664336205770261 
-0.004454062271242053 
-0.002424199414891406 
0.007258866034651965 
0.009057584900349832 
-0.008671843856723616 
-0.005964426059514115 
0.009581090158120245 
0.001402366893573103 
0.004435314269545495 
0.005651956967236522 
0.007733076124697275 
0.006150361933593904 
-0.008908865124608333 
-0.006701121196671426 
0.001796317780852121 
-0.001305340819184504 
0.006312441538726556 
-0.002029376958669534 
0.004776481793840208 
0.007597144511148149 
-0.005107573319296708 
-0.0004422415311602254 
3.822414529268469e-05 
0.003976069866954149 
0.00147456432051681 
-0.004693063867389665 
0.007294841609337546 
-0.007062102111277629 
0.003270316678579794 
0.003160639867605602 
-0.008138633279934126 
0.00834558147097691 
0.001401041134943629 
-0.004838846583840592 
0.01029117196154038 
-0.002662418030102233 
-0.004430607296729423 
0.007369603471967588 
9.917774730832001e-06 
0.004305018855280911 
-0.004161579080203838 
0.007505605450537441 
0.004178150334152846 
0.0007341282717395973 
0.00704412171031823 
0.003272457757870704 
-0.005419368306900594 
-0.004846767119378132 
-0.004915632509898345 
-0.006835740560897544 
-0.001133646183850806 
0.0100856738341844 
0.002673216849728295 
-0.005440210348288571 
-0.007751290946140091 
0.003404206200094378 
-0.004324234726051751 
-0.007037083070081902 
0.005067526097955957 
-0.001838421453939863 
-0.001770617758842886 
0.005229991155674526 
-0.004819440416508172 
0.001556084723949842 
-0.004029727277207314 
-0.007328432159701795 
-0.004591556590824704 
0.007208314015479289 
0.007663089364551165 
-0.003848303414297771 
-0.00275670562714584 
-0.006714512709759758 
0.009091066987505336 
-0.01110688876638087 
0.005434337590356999 
-0.006746313422801201 
0.001490649239433058 
0.001700539154850661 
0.004848337114605793 
-0.01032795148574455 
0.006708711483119974 
-0.007015898728137294 
-0.005946825474163834 
-0.005706964530622203 
-0.0006472273739523165 
0.005603535676699082 
0.007082578721066249 
-0.000416060495229949 
0.007460524408915555 
0.003006096025749359 
0.01298583502966128 
0.008984126928766855 
-0.01086381455168554 
-0.01092258994811479 
0.008766654307662606 
0.006193938096789078 
-0.005700412225418635 
0.0002523235217292583 
-0.002662397936223731 
-0.00370375888895743 
0.01207993631496897 
-0.009356480735631967 
-0.0006474596562721203 
0.008056515745717464 
-0.008819153416372917 
-0.005331032409761054 
-0.0008702402685462779 
-0.0003656644648117848 
0.005015936875052341 
0.01190771656608971 
0.0126745254051976 
-0.005279007001480333 
0.004261021911205574 
-0.004348892417596838 
0.007836958998225819 
0.004488359873437504 
-0.009974132836107218 
-0.007247220040586092 
0.001409970980895882 
0.0009405925574809998 
0.005989290375415646 
0.009556959232338059 
0.004639134327222086 
-0.008293233783126118 
-0.001188187238811777 
0.01214045139906538 
0.01163735277481988 
0.0008948109757080072 
0.0139171016949753 
0.001178145450591377 
-0.002253291915335152 
0.01741439872792271 
-0.01727874663067138 
0.02325648528559865 
0.01445031849187712 
0.01428891046449754 
-0.02413073451373053 
-0.006999567434459246 
-0.02858772023776743 
-0.009695247490946014 
0.01283705966166584 
0.01331933879243055 
0.01278306830913198 
-0.01927563827518621 
-0.01987900083385557 
0.01390876674445381 
-0.02159151127520908 
-0.008570823401137691 
0.01496528781174639 
-0.02651594077334789 
-0.006776413518256065 
0.02877497360939001 
0.01582316026162882 
-0.02244110942066522 
-0.01722588889360958 
-0.009202342075780436 
-0.004958198099218491 
0.008492032071989213 
0.01824442451242012 
0.02005879007068278 
-0.0163123409957801 
-0.01949496332349358 
-0.01244712470730147 
0.01515173878887847 
0.02434971590083169 
-0.01526354841805688 
0.01652922309497007 
0.01696007628077982 
-0.007133459628678346 
0.01424707709902568 
-0.01985348049048179 
-0.005588580048333027 
0.02347376391694963 
0.0250568462609515 
0.01429054479901211 
-0.009130039101305639 
0.01745653376884254 
-0.01047944970791222 
0.02676769670982709 
-0.03073261556759183 
0.0268994029233194 
-0.001442614810725734 
0.01909987189600809 
0.01757125596561923 
-0.01625776573020132 
0.01578555501751291 
0.007166479483736367 
-0.02316891854422435 
0.02007538844043397 
-0.02041615807191811 
0.0187182073584998 
-0.02094646852133398 
0.0007476421461001601 
0.02111171669056297 
-0.01830139452124575 
0.02626148064303346 
0.01579356185710902 
-0.02056541744240419 
0.0210627620739879 
0.02105290008588953 
-0.01299326456508181 
0.02174725122522843 
0.01270593736121845 
-0.0177482313791314 
-0.02462799206374163 
-0.02221164481174677 
0.01797885059640101 
-0.01298576388712651 
0.01010427119253548 
0.02515986842643645 
0.01030128547543108 
-0.01241725767168046 
-0.01142922120740641 
0.01386700413275969 
-0.01191658333621537 
0.01802841633901244 
0.02315621163224928 
0.01701921866383652 
0.01611016635219316 
0.02051217250334987 
0.02246924376624546 
0.01888208710301631 
-0.01655058062816735 
0.02709616529166565 
-0.008454542677465447 
0.03037274941374217 
0.02398667515715189 
-0.02290229187419347 
0.01205301178123681 
-0.01782642829879539 
-0.02058041957582883 
0.008482270383202149 
-0.02699405281760888 
0.01663901352018353 
0.01222922989607286 
0.01798892095826242 
-0.02443331265551171 
-0.008142148420914317 
0.02250508094343171 
-0.02723062234983567 
-0.02525103117025123 
-0.01899449308546431 
0.02663040328043483 
-0.02046167063383285 
-0.01703484591855027 
0.01832715045137401 
0.02366269905144328 
0.001451865575598486 
0.01298494127727094 
0.02309662684370315 
-0.02248056981328339 
-0.009451057932358602 
-0.01691889524958851 
0.02375377860125565 
0.02208872917200409 
0.01768697804545289 
0.02230316598953453 
0.01312447705715797 
-0.02069871833719497 
0.01260764870121623 
-0.01721697936021165 
-0.02296759450099847 
-0.02791790277648405 
-0.01955912455968612 
0.02944918869009033 
-0.01524025798495322 
0.00546150004338576 
-0.00598581877522176 
0.01510917456020789 
-0.01431530240111149 
0.01812924902495742 
0.02862135549518905 
-0.0190250882629849 
-0.0197887143483652 
-0.01278465055020579 
0.0243055748736856 
-0.007191094412009188 
-0.01679419910269151 
0.02212199899782635 
0.0206330425036502 
0.02246349404991091 
0.02185792335136459 
-0.01720174319506061 
0.02568282437053677 
0.01363632426939487 
0.0241206299412513 
0.02957955602440372 
-0.01559882180278389 
0.003903793862497655 
0.02447355989233956 
0.02378110433223306 
-0.01271434228800365 
-0.02403905861064857 
-0.03508958188537083 
0.02265299365959846 
0.0353644377640136 
0.0301824357468535 
0.01381050374241494 
0.01326074300174481 
0.02583787233305946 
-0.03037265144697298 
0.02483103208045641 
-0.02608383345738971 
0.02518286573674659 
0.0159260471396706 
-0.01830686355501144 
0.02302299237643283 
-0.01865752394261348 
0.02922178449338102 
0.008774930167116968 
0.01848837187538371 
-0.03224780227546135 
-0.008653393448526321 
0.02799109017318069 
-0.009672782388997067 
0.02368761060132282 
0.003637444522006342 
-0.02025808324723308 
-0.01502260225929227 
-0.03637993330292312 
-0.01380190871344667 
0.02652534636070409 
0.03216287286171475 
-0.0114013687106661 
-0.0334437992540598 
0.02565142990858185 
-0.02224911476841951 
0.02518576819666233 
-0.02322147927092243 
0.02322073207992885 
0.01915615769247748 
0.004356026692060232 
0.03998900108934688 
0.03914433627048205 
-0.01421007054072149 
-0.04085173844458499 
-0.02431380719235366 
-0.005848835573931933 
0.03227624995920019 
0.04306343311574366 
-0.02352433343018823 
0.04399353739756611 
0.005813405619724753 
-0.02322397586850867 
-0.005019399047888478 
-0.006528124711265021 
-0.002575213391595301 
-0.005653639702000154 
-0.003061794701928398 
0.003690159002106062 
-0.0004790598338771943 
-0.00397355237367805 
-0.001191144805035186 
-0.003082382787792673 
-0.001487674470711488 
-0.004362425924186941 
-0.006975085266708957 
0.003380931220082282 
-0.002789949940788624 
0.002629742783845654 
0.002919899944440412 
-0.005669436454774889 
-0.00374124298666679 
0.005855693442153686 
0.005429096756962398 
-0.000727732927183094 
0.00102773963565157 
0.005258965993933286 
-0.001134389827436571 
-0.004996506604784644 
0.004513146340745662 
-0.004004981240629298 
0.005081978528953484 
0.001420773469416326 
0.00116470135811601 
0.003309350264583979 
0.004943025690218828 
0.003760123408723488 
-0.001971211716384095 
0.001608651865138758 
0.003481433413965131 
-0.006268454459360615 
0.004105066346823679 
-0.00537174693252765 
-0.002071780970852996 
-0.003384320743950195 
0.001589081350775882 
-0.005717017981553222 
-0.0004642773481691848 
0.004322220575928065 
-0.001058793157699436 
0.004635162105174932 
0.005353919313077344 
0.0007751717801348701 
-0.005404229914140233 
0.001568470619815158 
-0.003912662041867516 
0.003895489575186163 
-0.006118024347107022 
-0.003092028529798346 
0.003294046601495238 
0.004695198337811225 
0.004402347382631531 
-0.007297617528843083 
-0.001055430312282061 
0.0003420816864286348 
0.00650659048800188 
-0.006903107098724864 
-0.001030991879696588 
-0.001328087478405616 
0.003026842991748488 
0.0006444855678753365 
-0.006500197767555266 
-0.004247795765634876 
-0.004581868279925276 
-0.004515952972055825 
-0.006337648932698759 
0.004411004515533837 
-0.007019125217029697 
-0.004297647827791977 
-0.00530067709532217 
-0.002517069530945994 
-0.002991485662212217 
-0.000712783373145485 
0.005689575623469635 
-0.00353932584601137 
0.00650259756464338 
0.0004010765361960175 
0.008520538069281139 
-0.004432868307561185 
0.001418735993871404 
-0.004825503276622814 
0.006806694191346994 
-0.003808008068788628 
-0.007718510954163776 
-0.0008233655020313807 
0.0004496608617089679 
-0.008446590069473708 
-0.001806501902736687 
0.001879131894757743 
-0.001847829276648933 
-3.926329280872703e-05 
0.004011093472885555 
0.002454703380296038 
-0.005220674204919019 
-0.001511265704559836 
0.001225664363192081 
-0.001040268885668229 
0.005070798071419769 
0.002474085833450202 
-0.005022209566768848 
0.002195072878796988 
0.005596091417106395 
-0.005470105374415073 
-0.004408107886973408 
-0.0006219399932231259 
-0.002289131084901132 
0.006011366525965492 
0.001003445043163716 
0.007262437545400144 
0.002624577952448579 
-0.007294195883926343 
0.004926157328716832 
0.007025400144099072 
0.004312886325485142 
-0.005237256246875348 
-0.003240629345891543 
0.006373581938490585 
0.002077487146401245 
0.006289107759215095 
-0.005284256776286407 
0.0007301904546887662 
-0.005995775717222417 
0.001110081191101349 
-0.007211372950095817 
-0.003627003091568773 
0.002281172062418553 
0.005007006543153812 
-0.003494406624499305 
0.002367059956599426 
-0.00651507530435481 
-0.005985388226821454 
-6.807157298147774e-05 
0.00108196033053026 
-8.596341023212326e-05 
0.0001476817944965181 
0.00338037379110938 
0.004765367133432228 
0.001433867583383905 
-0.0002329952515848392 
-0.004844239809987264 
0.007273439757839917 
-0.00740613185913645 
0.003868179005732556 
0.0004744267248950344 
-0.004543677859304127 
0.0002855112226309189 
-0.008050921920948166 
0.005591855520610024 
-0.007448972494048665 
0.0009311047480149425 
-0.00135321576032413 
0.003986890821433072 
-0.003829830846950303 
0.004100046910552307 
0.0003230590278970287 
-0.003839851447913081 
0.005701508131459684 
0.004610638826369715 
0.006135642232144719 
0.00653431080735519 
0.007365450380716604 
0.007698454396335905 
-0.009298375556306209 
-0.001034071321245952 
-0.0009908775491751572 
0.007602147230867637 
0.001580590314310623 
-0.00775718100375908 
0.003730708886274438 
-0.003416638795396791 
0.007179224882656474 
-0.003071513238686177 
-0.004915531044315971 
0.00630757818839895 
-0.004824943272134651 
-0.003202523091165353 
-0.00854754968458591 
0.005403569027205226 
0.005466866542487266 
0.007552926121354957 
0.001040251002845282 
-0.002384543428897253 
-0.01088348138060026 
0.002049099574216716 
-0.002449602402239595 
-0.002564118169038351 
-0.005297287814427395 
0.008414181534830568 
0.003013321366544827 
0.004276586333065877 
-0.002081952846891413 
0.003066089203545622 
-0.005855257451155092 
0.000365602846824021 
-0.0007940272731476218 
-0.001241400591358171 
-0.002114579085466084 
-0.001749240010280534 
-0.004362267214133284 
0.0003242812799697698 
0.008445155361689213 
-0.004513219232687022 
0.0082018059070233 
0.002091556603138861 
0.004144254220770411 
0.006898781204978227 
-0.00740730085149737 
-0.01843884578598837 
-0.009382826410160463 
0.01877815291356104 
0.005401714656217003 
-0.009247973597343482 
-0.0007862676830166061 
-0.01121939038305594 
-0.0111513816186306 
0.001720541918425807 
-0.01612714803636666 
0.01306810612290108 
0.0163682115997515 
-0.01651003638097577 
0.01379110865465761 
0.01241667064857936 
-0.009155927597577921 
-0.00341692326834661 
0.01133425447614514 
0.004819166731565675 
-0.01409371323191619 
-0.005051068069489196 
-0.01014478861549264 
0.01963355986641887 
0.005344974111222778 
0.01650919899835342 
-0.01245160124439359 
0.01670252008955339 
0.01750531655481451 
-0.01621075723127133 
-0.01575376324588294 
-0.01085824171979535 
0.01611521708340469 
0.01789245634620081 
0.02242402354961021 
-0.01796069331099724 
0.009715765308978818 
0.02042446114436391 
-0.01841653657560468 
-0.01805091759536431 
-0.0116229617674316 
-0.01322839103124816 
0.02006552489730751 
-0.01565672171840277 
-0.0104421274789073 
0.01503797215685839 
0.01033807938364501 
-0.01704317076138923 
-0.009370852693926231 
0.01490332149769212 
-0.01920074034759896 
0.006915562096150589 
0.01562323185610686 
0.006727219621734826 
-0.006470465241863371 
0.01750072611191536 
0.0217931229986302 
-0.009720426116898695 
0.00033360678337973 
0.01603741591838766 
-0.008615198071253161 
-0.007934709035376016 
-0.01753528738856002 
0.02921025085009409 
0.02072413449368723 
0.01995930403905713 
0.002647503925845439 
-0.02073434169801989 
-0.02003785395009582 
-0.02469594834596919 
0.007587680610238858 
-0.01746368923056356 
0.02036308729600901 
0.01051955582594159 
-0.01971275666913982 
-0.01671579614180661 
0.01460992190916711 
-0.02086433815813564 
0.02469683315694806 
-0.007186172748128494 
0.005951862987636665 
0.02445400930177399 
-0.006892289351491361 
0.006043590984159381 
-0.01958081564640707 
0.03456090343792741 
-0.02184357899481879 
0.01877431432673972 
0.01038050715860135 
-0.02545899751593094 
0.02303963972956862 
0.01642925733718101 
-0.02301742615341199 
-0.01689312376917943 
0.002369614867738757 
-0.005541814716919426 
0.01479690781595952 
-0.002426793347516679 
0.009851974495040645 
-0.01906903568913474 
0.01966754733770114 
0.0117834091762133 
-0.02544893648423802 
0.0069852864453078 
0.01389002632351915 
-0.0200554677531848 
-0.01722986510041619 
-0.02311647677717458 
-0.01501772880128213 
0.01292108871415275 
0.0101005259073991 
0.008377541185639775 
-0.01744227027375703 
0.01991678179614478 
-0.01194483392014477 
0.03228436565076207 
-0.01870156855801847 
-0.02645354915911309 
-0.02099926483478654 
0.02264397138666456 
-0.02599090653421549 
0.01102928042484605 
-0.006755002336589942 
0.02384251705629001 
0.02730941251271309 
-0.01885204318295092 
-0.02648532538046223 
-0.01589674652302859 
-0.02209095130713379 
-0.0153464524077262 
-0.01786879737144163 
0.005541527231102698 
0.02089329511357145 
0.02060177477648399 
0.02291603598989948 
-0.01378605870096012 
-0.01519915781522219 
-0.02214850367397626 
0.01672720771538906 
-0.01127938686528688 
0.01723652373066489 
-0.01230831395925784 
0.015310540589192 
0.01473093497205102 
-0.02401717159038924 
-0.01415450666603934 
0.03152028394215363 
0.02190512467377679 
-0.01288857074440831 
0.0157334429164166 
0.008733863041732693 
-0.01836966491914595 
0.02241735869924918 
0.008831547573324921 
0.01701322325306495 
-0.02152607802604516 
-0.006084551978877033 
-0.02041154819116793 
-0.01706097427790426 
-0.01422208935277011 
-0.01632572745502716 
4.333824389857204e-05 
0.01951523078200513 
-0.01184455793425327 
0.02711191306105579 
-0.01341169074397132 
-0.03091054188077636 
0.01828002454782381 
-0.003729665656809679 
-0.0223935185637184 
0.01081586798206487 
0.02687718001699428 
-0.017292860843061 
0.02548829035743255 
-0.01165317712934307 
-0.02028037923987807 
-0.0285798828962323 
0.01280046363077539 
-0.01548685900333936 
0.01126914525595789 
-0.02288994106364927 
-0.01352755161006132 
-0.02964946231184657 
-0.01500179209597998 
0.03330709829036693 
0.03245971683744221 
0.01658862827777269 
-0.02751764165813872 
0.02431772119803698 
-0.03341460671186951 
-0.02309573270255579 
0.01806369137354692 
-0.02711508220828766 
0.01994148885983148 
0.008288576862776448 
-0.03485330003333928 
0.019844611387814 
-0.01352680053149754 
0.01225401937624793 
-0.0296189013449438 
-0.02928299972887151 
0.01777566596207458 
0.03794871716370762 
-0.02851846084200685 
-0.0266757409016903 
0.03218543476416183 
0.01757236703318409 
0.01642303722485154 
0.02884437140264992 
0.02159252981860303 
0.02393765367436928 
-0.01608005556592023 
0.01387104292944662 
0.005994903249278954 
0.006659407373983397 
0.006597165625580031 
0.0001279950417844857 
0.006085287507159994 
-0.007628677370602405 
-0.003360023235784687 
0.005332929738400052 
0.007107666377876111 
-0.003204347430673736 
-0.004588370435473187 
-0.002367467665524772 
-0.003546596671378246 
-0.001977137053702702 
-0.005026408822916027 
0.005750772781758671 
0.00646430402622252 
0.005022679282438978 
-0.005718013782661468 
-0.005392917279219517 
-0.003669517948097731 
-0.005848576661756219 
-0.002130487071343334 
-0.004115617989876586 
0.005311088008333624 
-0.006785969943336257 
0.004328829056521107 
-0.007655998825252588 
0.005042608133585584 
0.0004148871293525472 
-0.008327098407189886 
9.768793321615644e-05 
-0.005355665026478312 
0.003956790725978207 
0.004517427721813441 
0.006315631873216043 
0.005657235510062119 
-0.004541111382643434 
-0.0052121442927517 
0.004482774698511914 
-0.006798888339130528 
0.002878749722242987 
-0.005847882536095952 
0.002347611657724899 
0.001859669211873454 
-0.007552281173457795 
-0.003918352764324197 
-0.008640431123188724 
-0.006798900973733697 
0.004539976989657347 
-0.005973705300838625 
-0.006793404532598058 
0.008478551144786146 
0.005787109511716381 
0.004601488069240511 
-0.002586006744325761 
-0.001571007405158403 
0.002780323442255471 
0.003381209618703653 
-0.004820737504307377 
-0.003552434052420945 
0.001657089131160012 
0.004227620831294235 
0.005738645895258325 
-0.005939804133614923 
-0.0003185799638842783 
-0.003515782623655065 
-0.004063674026191681 
0.005325232155013821 
0.008857621506696023 
0.007878082104621058 
0.0002296991751857502 
0.004138557569769167 
0.00714714737461637 
-0.003608065182067655 
-0.001054187650465738 
-0.005018356304369995 
-0.001669929593320311 
0.00549098726339766 
-0.002238439842120456 
-0.0001109484837831761 
0.0007517140843230956 
-0.00333912492181798 
-0.001197243576579605 
0.005716823408664415 
0.00344135373141316 
-0.007133762859154408 
2.639932299733879e-05 
0.007797112181129184 
0.006858492954284709 
0.002766659021738684 
-0.004720288715920232 
0.006126285433794601 
0.006481922300017237 
0.002102977506889812 
0.004765656854601824 
-0.005708802379437052 
-0.003999693173256696 
-0.004373306941625545 
0.005748311172304283 
-0.005769385690390573 
0.004806942655810181 
0.004567505068663974 
-0.00297902288964608 
0.005595684194127325 
0.005429904399672678 
0.004709505568061561 
-0.003940406464156104 
0.003293315932675036 
-0.00357092411383434 
0.005292444776654115 
0.009534292365495424 
-0.00316255945258403 
0.006642067450215424 
0.006072151407434191 
-0.00498679798133089 
-0.006907488001589915 
0.005725520875107609 
0.003546697942582111 
0.002471903351536599 
0.00346555006556406 
-0.002656211888728189 
-0.0003407461116843912 
0.003828792282569791 
-0.004738258620440075 
-0.004829891177114235 
0.00222629133101084 
-0.003248979360747583 
-0.003671807338191997 
0.002455878981526308 
-0.006209999787473345 
-0.004579535349044703 
0.007850731104437311 
0.00437201004820485 
-0.005298386344578332 
-0.002719102861355944 
0.001990808180278095 
-0.004708153859900963 
0.002361196966187996 
-0.005581870490914629 
-5.506101747601255e-05 
-0.002112464052895553 
-0.004096703600175215 
-0.0008664420638604668 
0.002784742929254816 
0.004589435240952588 
-0.001873926729819782 
-0.0001904750982414754 
-0.00413070487233172 
-0.005604950217713134 
0.003568180461161512 
-0.004090044386790986 
-0.006507013844397305 
-0.006671859261352958 
-0.007670187290233133 
0.004586477966296945 
0.008407522904581868 
-0.0007788923549031317 
-0.005211439670651877 
-0.0008275022654874999 
-0.003566502294292872 
0.003399926228270798 
-0.001819807354739585 
-0.004890765278319159 
0.005670209692488846 
-0.002287996011590259 
-0.004606267448051669 
0.006053901014723991 
-0.002869691003338408 
-0.0005933449705734837 
0.005494738574267862 
-0.003488979576491841 
-0.00425484509668927 
0.008001856119865211 
-0.004644858191214771 
0.005035609340943867 
0.004756076520964866 
0.005679033310585222 
0.0006895337595289823 
0.00523455205304011 
0.003937651926286699 
-0.00441438485501714 
-0.007265067875401469 
-0.008266481079997062 
-0.003940492962593185 
-0.00732347025946947 
0.006709002273371376 
-0.003808992790321787 
-0.004244877949816823 
-0.008192993951637542 
0.001436784038552386 
-0.004370343252479062 
0.007891524156122067 
-0.005016344292409922 
-0.00590636208843254 
0.006453466063623946 
0.005097401686231429 
0.001852433617611569 
0.003389469733498681 
-0.008623089838771178 
0.006069045238839661 
-0.001163225442087332 
-0.004052157099456643 
-0.004142201972458706 
-0.007589929958360004 
0.008731760643765333 
-0.008650557077304083 
0.005294281264819392 
-0.006203500936360109 
0.003797126662593004 
-0.007035582662360928 
0.0002845885078425438 
0.009204785413654857 
-0.003386036717439088 
-0.002814057735528084 
-0.00455225996210146 
0.004181941298239148 
0.002085736618972834 
-0.003157332711631426 
0.003401950874834041 
-0.002074780668618511 
-0.002746076961608228 
0.001789753934424505 
-0.003217189630091971 
0.0046807006166208 
-0.001565847481818713 
0.002719475484960182 
-0.002113651511214951 
0.002084590757654639 
0.003222494802773479 
-0.001813231554033585 
-0.002456469309062076 
0.001830156674060587 
-0.004344875196924551 
0.002632422291610084 
-0.005588616202735942 
-0.002713582706042049 
0.002206806246003239 
-0.003384982019642222 
-0.003293090745170858 
0.003289742380952499 
-0.001223522919441464 
0.003458443490038383 
0.002003914540091822 
-0.003422923927337957 
-0.001067015854631232 
0.004046085103552017 
-0.00304112896184926 
-0.001125058930022951 
0.003555850060360887 
0.002344128249036513 
0.002689749179380617 
-0.003309644796621705 
-0.004187489638437038 
0.002805420915180103 
0.00247056447235768 
-0.002136735903097702 
0.002251609326355402 
-0.00383399909972509 
0.002094611941752949 
-0.002969628381864965 
-0.002551855120391543 
-0.003211414644551078 
0.002846285498156648 
-0.002804319372162255 
-0.004647021040898835 
-0.0001668589110518683 
-0.002377615001276263 
0.001328368063785229 
-0.003445232360207607 
0.0059224123107847 
-0.001586839291848873 
0.00219690965853003 
0.001500464090742688 
-0.002333821522906579 
0.00244828228058692 
-0.002166284935475877 
-0.00253422673891429 
0.00224720121049891 
0.003456618664583725 
-0.001760387617846009 
-0.00338951220520318 
0.002412573393217465 
0.003127769489621999 
0.00238636028483299 
-0.004756710389286941 
0.004037256431614374 
0.003812021887836985 
-0.001824322014317033 
0.003385930586772467 
0.002028813066611166 
0.001716800763832768 
-0.002734117240626737 
0.001144211822156455 
0.001548860646614692 
0.003014122594764267 
-0.00202383114539228 
-0.002925075272277043 
0.002018558822679011 
0.002302443971882049 
0.003880906133072696 
-0.001132506251077176 
0.001942781526711184 
-0.00225347983075998 
-0.002579818801639744 
-0.004773347634740195 
-0.002800146648681731 
-0.002981317333581614 
-0.002508850818773659 
0.001090363046259903 
0.003857921651744237 
0.0009540330539539259 
-0.005229374003904336 
0.001997129563811431 
-0.000571266633265397 
-0.004451974646041474 
-0.0002534210799876445 
-0.003201068070826533 
-0.003915521835700246 
0.004700370944348712 
-0.004888502518080804 
-0.003244068679252721 
-0.0034570618475872 
-0.002413404944484512 
-0.004058866268118019 
-0.002525470570160986 
-0.002708952415548288 
0.002461826575184344 
-0.001056686094647828 
-0.004902193374074991 
-0.003482892419063412 
-0.00310599948522587 
0.002705456323662104 
0.00175192321123666 
-0.001174661604551342 
-0.002713420205607441 
0.003572692180763992 
-0.002409827019245493 
0.004219336224806911 
0.002972079300501286 
0.001935042346323749 
-0.004351004340111204 
0.004128213911722277 
-0.001577932188182325 
0.001814383052328579 
0.003174898308849853 
0.004211937401191005 
-0.002443417569609742 
-0.003468846239152404 
0.0009664932024101743 
0.002683119705908462 
-0.002780165509715856 
0.001788313200906192 
-0.002440965484702359 
-0.002786101829420295 
0.001464644116054599 
0.002288105057934535 
-0.000544219300909359 
0.003051231979300404 
0.004497324318764589 
0.003367061098506974 
0.003623812562700775 
-0.001414566088879279 
0.003078983399215362 
-0.002728662979627832 
0.002746994233798315 
0.00200726232117465 
0.003094704927506611 
0.002068677960909259 
-0.003253915505827295 
-0.001855857400691922 
0.004361722371168925 
-0.001025686804204334 
-0.004712365264705036 
-0.0003698973484412454 
0.001646864347720824 
0.003095101848424636 
0.0005371619517414151 
0.004492932919459982 
0.005580731044087275 
-0.005728201354764591 
-0.003898452681197115 
-0.001660804008208191 
0.004345402351444474 
-0.002489272820838137 
0.002987677398438498 
-0.00359580067558202 
-0.0007834560950544298 
0.003988580165066054 
0.005075687857224775 
0.006442500783101129 
-0.00623068924173074 
-0.005789575591876507 
0.004602167422133995 
-0.005168710803383083 
-0.004425913152895029 
0.002132123884183909 
-0.004005032750934526 
0.005237294539441877 
0.003828485358902034 
0.004998012260725397 
-0.005623794048015268 
0.005049519844654689 
0.002245137882612118 
-0.004501673343553951 
0.003821924306665503 
0.002185892478944964 
-0.005005255970290087 
-0.003020089431894823 
0.002345757140952793 
0.007143896199653159 
0.001418676028100977 
0.0008506407917853683 
-0.005371324353646267 
-0.002848891725222696 
-0.002269180560550628 
0.001858152622141497 
-0.005092071244343582 
-0.004018292864149898 
0.004297061582204924 
0.001859311895576903 
-0.002956444270647119 
-0.004942841030634046 
-0.002173621946725509 
-0.004114154125315548 
0.004646488443780624 
-0.001773540077328084 
0.001765986130763019 
-0.0009519444610368963 
0.002547665010664422 
0.001679402885615938 
7.663058749366325e-05 
-0.0009067422849673027 
-0.0006716841579382295 
-0.001153053150716708 
0.0008047066110178707 
0.002038526226639155 
0.0008029147964062445 
0.000239837287431345 
0.002009127979973532 
0.002507505317437797 
-0.0009265888128285203 
0.001650964975613938 
-0.001646224690373917 
0.001579022950833217 
-0.00144209925988155 
0.000612115717213265 
0.00242347565618928 
-0.001932359401628355 
-0.001269396285835869 
-0.002538925012058178 
-0.0006786224835825122 
-0.003111611929140616 
0.0008822982259401946 
-0.00127589057778596 
0.001474432251993163 
-0.00139201448374768 
-0.00161656872513812 
0.001109156315085894 
0.002675044280880035 
0.001581740019777066 
-0.001793055990050836 
-0.001291177746700183 
-0.0007293125310966993 
-0.0004165518294350211 
0.001373708587668044 
0.002606706689992408 
0.001085625735779872 
-0.002646235868970286 
-0.002271776405070779 
0.001942943827831889 
-0.001854492081954414 
-0.001811631568707446 
-0.0007850559164923398 
0.001492562011103019 
0.001087933281092752 
0.001411541332990339 
-0.001705851274665685 
-0.00195484604694243 
-0.002021598366805289 
-0.001003340989964879 
0.000771917386347051 
-0.001203514324795743 
-0.00147397940406875 
-0.003414736770542612 
-0.002382618940037541 
-0.002368163988573355 
-0.003138022893398601 
0.002041372955920155 
0.001597401874767313 
0.001870581227986337 
-0.001086001402575205 
0.002245713736162135 
-0.002842610507806569 
0.001253558992803258 
0.001600072137783493 
-0.001120541444933661 
-0.0004863028048415099 
-0.00146981058173076 
-0.001671795841945977 
-0.001992981969448045 
0.001541997541515072 
-0.002695199825110071 
-0.00122930628793526 
0.00283080777668112 
-0.002879176742027933 
-0.002498598257430484 
-0.002476946570749524 
-0.0009632160477102918 
0.002158239162519041 
0.001060966854330789 
-0.0009712304294631008 
-0.001877244305924763 
-0.001103304853465122 
-0.0009303750711847765 
0.001577976209030401 
-0.001883944542286158 
0.001605342804482968 
0.001556856729049682 
-0.0008592927878938602 
0.001838269852914811 
0.001866902179747577 
0.002383315194560106 
-0.001403028731520157 
0.002003262016652884 
0.00157571923074598 
-0.0007520174291673727 
0.002511208523802801 
-0.001164957712382524 
-0.0008178850260342154 
-0.001576756936605586 
-0.001104145865119079 
-0.001971073108845876 
-0.001039448094124912 
-0.00153215778446224 
0.00218607571106256 
-0.0005587319839300403 
-0.0002505526565273311 
0.001298185656339431 
-0.001826234421432376 
-0.002005164259898154 
-0.001307159175099722 
-0.002424114105693941 
-0.002918084550424692 
0.001189134691302752 
-0.002066528018318942 
0.001932622358832257 
-0.002197685769591165 
0.001767298408796721 
0.0008175240410331048 
0.001251004447452394 
0.0006662649609053716 
0.001052895497394016 
-0.002966438644557892 
0.001280670628854436 
0.001840537565178249 
0.0007992856816150133 
0.001580061368267182 
0.001311256263035566 
0.003191232606093496 
0.00306591851776361 
-0.001910959644824926 
-0.00205011449645671 
-0.002646038556274616 
0.003367920631832389 
-0.001410986156928912 
-0.001946471026923517 
-0.001528669159491756 
-0.001400418628463091 
0.003047413186247791 
0.001985514769774333 
-0.001838362750300994 
0.001655136136710747 
-0.00259917099685551 
-0.001497770366961642 
0.001007123370787808 
-0.00184343143428516 
-0.002367331651819711 
0.002863177574596191 
-0.001970174440520505 
-0.002415900563249671 
0.0003681724811863925 
0.001586152690857881 
0.001664952471390367 
-0.001356382985315776 
0.002665799975486118 
0.00316406043281046 
-0.0007634342888392486 
-0.002146931331395557 
-0.002585966252662512 
-0.0009898216877647483 
0.001900351090249864 
0.002424546059731813 
-0.003517956222432783 
-0.0008679700008176076 
-0.001335719725081226 
0.002781773141458845 
-0.002169000581887933 
0.001523830121711214 
-0.002214285204722623 
-0.001472526222543044 
0.001196223177098668 
0.003216302870772255 
0.0007687450307308288 
-0.00314969893783168 
-0.002173539964361805 
0.002618454704967152 
-0.003642690126121558 
0.003050917171533968 
0.001045453961093612 
-0.002101926268517908 
0.002569111947583643 
0.00131749920060329 
0.002275042286362805 
-0.00233239973455431 
-0.002784243143855558 
0.002551072239491353 
0.002238655172223413 
-0.001908015204086354 
0.001847104782858153 
-0.001710973680769926 
-0.002969024892967857 
0.002415008089410557 
-0.001400133102993502 
-0.002220918908679806 
0.00227186065190735 
0.002677200324255346 
-0.002311246269376243 
-0.001595901447874239 
-0.002204076774419639 
0.001825539114410137 
0.001265846197440806 
-0.0008344157757916727 
-0.002451635477313203 
0.002326422089864688 
0.002689607839438622 
-0.001724319957954669 
0.001213470127195436 
-0.002067045414145481 
-0.00438149902394197 
-0.008960672440200502 
0.004446381793164728 
-0.00742865663528806 
0.01268952403980906 
0.005463127380273957 
0.007078965224559847 
-0.008357194031939012 
-0.007890658394237209 
-0.006761538313998644 
-0.007024447106263091 
-0.01172543423048944 
-0.005442896659300861 
-0.009224662560117725 
0.00105956425724978 
0.005271619451818024 
0.0005393080362789655 
-0.006651732921639892 
-0.0004664366018508077 
0.008490770555457392 
0.008808554539342008 
-0.004286892767628045 
0.007220031346458441 
0.01047581793982584 
-0.01358490104573905 
-0.006383268014037144 
-0.006659046801846798 
-0.008851369905047883 
0.006054013754259962 
-0.004122144151170519 
-0.008662981362925181 
0.00660230693717736 
-0.0004010368829799172 
-0.007217161930889452 
-0.0003522476825171149 
0.006719145721552662 
0.008405904120348124 
0.004097015577684241 
-0.005961444293166174 
0.008361229718569778 
0.004003258658271055 
-0.004205996805159339 
0.007741575908195498 
-0.007301067164265306 
0.007605994564721925 
0.01177042352545447 
-0.001367564490386414 
-0.004362615734802245 
-0.009380792433428728 
0.01303991579630987 
0.006578811045988312 
-0.01006969708690914 
-0.006678140991670194 
-0.002216935310174763 
0.004526841667445585 
0.0118904137686172 
0.004200003824119148 
0.009124270335877075 
0.01256293425746476 
0.009036287235733721 
0.00818515116750412 
8.32364741111809e-05 
0.006008632009082649 
0.00804274869334724 
-0.001154089554914166 
0.009002481702737085 
0.009065529538822649 
0.007286725140261627 
0.006451451135986218 
0.001861027285930265 
-0.006991674695048678 
-0.01088196717200506 
0.0007268947670466977 
-0.01147279698184457 
0.006286935579362537 
-0.005184702323425133 
-0.007558033611091494 
0.004825632052385885 
0.002775122213482343 
-0.002835880513689759 
0.01139693999068752 
-0.01150058144610627 
0.001361749948818675 
0.007477337761299137 
0.005110647026680018 
0.0003001744571228619 
0.001297632447790952 
0.009145844406734827 
-0.001061795236601703 
0.003178300515915564 
0.00722307784085031 
-0.01024910067677192 
-0.003869874958234889 
-0.004099575737043348 
0.006756704314826094 
-0.006011919338448774 
0.004963756158341894 
0.0007528822019807193 
-0.0107853902091645 
-0.01136293774663846 
0.007858910552150565 
0.01420709032940163 
-0.01596407068634066 
0.01042200347173636 
0.001377036409409254 
-0.01189457113619541 
0.01393795850913006 
0.008331246833356622 
-0.009758475710289132 
-0.00760250391543403 
0.005428068689021443 
0.007668984476011421 
-0.01108492010714722 
0.01065115746379536 
-0.01020155374936842 
-0.0002581354391871082 
-0.006215385627236627 
-0.007674721168985787 
0.001258974255284776 
-0.01172388775506153 
0.005522870392927469 
-0.0131380384570643 
-0.0003163249787863346 
0.006418730623834054 
-0.009783342164354277 
0.01280011569324196 
0.001705654905673886 
-0.006858280692951466 
-0.001886662215435865 
-0.01265362505025654 
0.0005048433657539155 
-0.007748692105457434 
-0.004026288186819275 
0.01257607268973269 
-0.005097469329953012 
0.009427229070781418 
-0.01304541631939423 
-0.009137656017610098 
0.01018259095941798 
-0.009264804055035969 
-0.006624390474110596 
-0.0103687993521692 
-0.009792728702616471 
-0.006760535515264027 
-0.012812066861569 
0.004218879629686225 
0.0114989677157138 
-0.0115249001415294 
-0.005434547519148118 
-0.003262754577015239 
-0.004411569671052523 
0.007148286821443724 
0.008917674358694947 
-0.005373237038187579 
-0.0006781586319172062 
-0.01407857114596413 
0.0005077205564633166 
0.006012642426507075 
0.004908069242062729 
0.005474551199702562 
-0.0002526570752529262 
-0.01458327183789149 
-0.0005884529494156094 
0.009317832456429816 
-0.00571736013632597 
0.01163706470586762 
-0.008477132181660985 
0.006423898759665803 
-0.01195537234545897 
0.0113775849449033 
0.0002354786800270083 
0.003173283606564825 
0.009496696451548017 
-0.002086834274420476 
0.0076321680198903 
0.01584693664100822 
-0.006084439433719572 
0.008097760921817168 
0.009776685866647702 
0.01485970918009403 
0.01105204448094384 
0.01301793042052433 
-0.01208574317858555 
-0.007182457786039717 
0.009230542898811199 
0.01055110345816262 
-0.007233910166472085 
-0.01165114704018154 
0.006853483820074381 
-0.01370142318752108 
0.01585072935450111 
0.01117363912433055 
-0.01100674379160532 
-0.01149919280602872 
-0.01729352795010833 
-0.002612889826840599 
-0.01385195534849258 
-0.01560582176169667 
0.01905237123069004 
0.01053466797760306 
-0.003487678503933175 
0.01511911818728059 
-0.007118497537226823 
-0.01691789147896134 
-0.01838650354073587 
0.009719177818105574 
-0.009930394172477437 
0.01565293600253625 
0.01516671837439592 
0.008704046155767331 
0.01799487593830385 
0.0133430385866769 
0.01037378613285085 
-0.01819011204658726 
-0.004067421060734656 
0.01009810045234763 
-7.660709782828121e-05 
-0.01569426398388134 
-0.00648115567117263 
0.01043153773766638 
0.01010399556380788 
0.006826880010884212 
-0.00795308655163195 
0.01996315817615927 
-0.01431967203002294 
-0.001108961862449809 
0.01131405388384114 
-0.02015265467579067 
0.009776110117500205 
0.01112871941687221 
0.01031077775560288 
0.01074844546322658 
-0.01329742144912362 
-0.01109891535988853 
-0.01203498045310771 
-0.008766290431091332 
0.007557719495418856 
0.01646146274628089 
0.01323422977294044 
0.007338801670090555 
-0.009089043895970175 
0.01452744788476257 
-0.01894636963139927 
-0.006307828547920212 
0.00587983739129606 
-0.006038143915165357 
0.01524042592798611 
0.01093282864176612 
0.00636470603257494 
-0.01490882862964582 
0.008306498172668717 
0.005680588047099824 
0.008473942041550006 
-0.007849213397028919 
0.0155167489756246 
-0.0079432552753382 
-0.009789902050319746 
-0.01043830405360978 
0.009905839501542807 
0.01162409849295981 
-0.01248292300878566 
-0.005896774951547721 
-0.0121083536756602 
0.008731042220791279 
-0.01990315741760111 
0.008798720930506135 
-0.009363507518779167 
-0.01328297990332267 
-0.0113909247533079 
-0.01608269600360409 
0.008969413641808512 
-0.01294919545798453 
0.00877399948280967 
-0.01526360984166614 
0.01229054115454744 
-0.005214288725071913 
-0.01780884404123997 
-0.01451122116672306 
0.007071978483385768 
-0.001372655360760321 
0.007716919382921473 
0.01122044585836685 
0.02272851904101695 
0.01587776118517096 
-0.01705857564708721 
0.01320241467588923 
0.01803946325850958 
0.009534950919888307 
0.02199131443778415 
0.01503315312483113 
0.0102471596129681 
0.02175986094794835 
0.01545867100929028 
-0.003952848292437756 
0.002063001233705319 
0.01438238709009888 
-0.02433325515106579 
-0.001554851003544994 
0.009980949690463299 
0.01430530123799974 
-0.01309359458819917 
0.02138737729623836 
0.01927634814550581 
-0.005246189688830042 
-0.0158969167986036 
0.003912458138810216 
-0.006480060348267112 
-0.01360306921633939 
0.01132647894697628 
-0.006067250153297077 
0.01625756979666294 
0.01023251047091816 
0.01291327547555289 
-0.006959202598632671 
0.0182584267627878 
-0.01194424417574453 
0.01615369703081693 
0.0008760347891274563 
0.02226241803366416 
0.01016179751265758 
0.01848791936221174 
-0.01347863314788917 
-0.01104679509489478 
-0.01000221431073266 
0.02163192334501366 
0.01619060950992214 
0.01918338623419974 
-0.006451164233305022 
-0.0146028193184009 
0.02500481813137163 
0.00991212025996749 
-0.004253460927317453 
0.01746668810222041 
0.00972223539207253 
0.007186966784343053 
-0.008465705446554724 
0.01000834811900356 
-6.14331338005355e-05 
0.01202597995056697 
0.0143871960144436 
0.01403900967652061 
0.01574732231956577 
-0.01688750389768975 
-0.007507907863991897 
0.007910944124328719 
-0.01661628911730185 
-0.01178010668532337 
-0.02086612255286016 
-0.008028900390759713 
0.01116852424821062 
0.01232470123394686 
-0.01330741483709496 
0.004651350627837168 
-0.0090571047854294 
-0.01250531541317176 
0.01703079818045187 
-0.008581654754866913 
-0.02147689482034199 
-0.004847577289009046 
0.01812946517386087 
0.00754003027346788 
0.006866897686691398 
0.01603881466614775 
-0.009505738939846985 
-0.01189443934756543 
0.01553225804820409 
-0.01435557140833249 
0.00638099942244348 
-0.02116467472693609 
-0.01457288891538552 
0.002419330767749395 
0.01990421172664095 
-0.01356381447618512 
-0.01273703559032369 
-0.01650048928606408 
-0.0149712801124618 
0.01852960500001577 
-0.005573890281174428 
0.009773468124788262 
-0.02203801037606958 
0.01615307812964015 
0.01076011400519965 
-0.02047627623509649 
0.01754117472487987 
0.007342055760731421 
-0.0006051920492082585 
-0.008119612759566132 
-0.01545747752523706 
0.01733507519041304 
-0.02109876097409472 
0.02724195072941572 
-0.01876298205958946 
0.01926455870009934 
-0.02035084067234633 
-0.006940672689624666 
-0.02853875551350983 
-0.01901434923904806 
0.01199513480228214 
0.02947429617350824 
0.01266592298984594 
-0.02371759387529299 
-0.01341730906043291 
-0.0144876477185084 
-0.01059243921464813 
0.02816049182241769 
0.0119040634163672 
-0.02092002449127927 
0.03335699758650203 
0.00858821289142579 
0.01010601671155794 
-0.02573114920073847 
-0.0158393356637416 
0.01912513099466403 
-0.02313431528182146 
0.0146992046240303 
0.02056767301063766 
-0.03011011916588298 
0.01086970538681857 
0.02774330422339578 
-0.03385832308997661 
0.004855154552097405 
0.02141495727430724 
-0.03353105343478955 
-0.01706980761492615 
-0.01234425765586774 
0.03176127441921859 
-0.02222352133872586 
0.0002530582239035495 
-0.008439705377017534 
-0.01814919226011379 
0.01815075506333657 
0.01183679756660822 
0.008271124393851012 
-0.01212689583051436 
0.01750378407463933 
0.009591323797930307 
0.01118901368698092 
-0.02021754522015384 
0.01204364429206863 
0.0140987748483243 
0.009438315254737638 
-0.01656750166624564 
-0.01129548023966832 
0.008778868664492585 
-0.02467992300406635 
0.01875613604845684 
0.01597923765274203 
0.01420862669714701 
0.007954933536236782 
0.00947365482293753 
0.02097431674174707 
0.0172887773393167 
-0.01681286021719397 
-0.0127633645483003 
0.006199555246979611 
-0.01531619156124332 
-0.01709867515624723 
0.01184804041964374 
-0.009863422223026018 
0.005309628420099811 
0.01531449969068971 
-0.01204102173720771 
0.01192658838689732 
0.0080502353760498 
0.01596876065103708 
0.007879045055761065 
0.01399215201531462 
0.006248806873918407 
-0.007493927578395879 
-0.006457623431202156 
0.01370004776518223 
-0.01320353896119278 
-0.01600143645613188 
-0.01660192921047522 
-0.006162618859317637 
-0.01126942807669037 
0.00885633821977105 
-0.01739132988632078 
-0.0140879269724217 
-0.0264932218130645 
-0.01391259949991982 
-0.01384381555399542 
-0.01969630602705645 
-0.00658853580285842 
-0.02036922965693437 
0.01756602407363611 
0.01418832114044745 
0.02290419522856629 
0.02136939261895174 
-0.01745757641517177 
-0.0134272316946265 
0.01632292607193678 
-0.005197124665261129 
0.02053513404801411 
-0.01740392561378796 
0.00839075076044247 
-0.02171306237780949 
-0.01458123786115975 
0.01489391435530783 
0.01935718394782559 
0.01698952851265987 
0.008829130670927899 
-0.000762168052174579 
0.01126977057162551 
0.02693160288982099 
0.001127228680144129 
-0.005018736119979114 
0.02109978262754484 
-0.02370450442640966 
-0.02132164237162647 
0.01698261719034778 
0.02316095602292859 
0.02463237102282158 
-0.0218134822037986 
0.01694786697779111 
-0.01572924978319249 
0.02018962313590684 
0.01057453228876562 
0.01812312998945331 
-0.02206013764816763 
0.01903712806791263 
-0.008787979962784199 
-0.02544965101964187 
0.01419067389793607 
0.01253443603531324 
-0.01092598962825987 
0.004578818675477242 
0.02300496960095818 
-0.01734809621806075 
0.01097969679941167 
0.02607514162792332 
-0.009361075454858344 
0.02274259904278875 
0.01494052943213297 
0.01398834530656898 
-0.009942347673346598 
-0.02512659937812823 
0.01495175284731746 
-0.02161635673639511 
0.01573222610694215 
0.01591948258862089 
-0.01849534928638929 
0.01656435351189288 
-0.009791463687271464 
0.00761615084188489 
0.01905475742128243 
0.01180733095071841 
0.01238668465331004 
0.02029196264406363 
0.01515070236266157 
-0.008083375745784204 
-0.01303582373991112 
-0.006801212911735158 
0.01926627700613036 
0.02035972765783706 
0.01825604212722349 
0.01845619912187356 
0.01645569514712339 
-0.0004679594602897215 
0.02123339219540997 
-0.007560607765703344 
0.01971220618919866 
0.03000335249277569 
0.01693536455200887 
0.0226028175684647 
0.0254753346409643 
0.01817068663578232 
-0.02633569746832063 
0.01322228326969764 
0.01695682316203151 
-0.01164958890204301 
0.02350081674049858 
0.02395362536780328 
-0.009517118246596732 
0.01805866941035491 
0.02457481554592294 
-0.02772487558559164 
-0.02506256720926653 
-0.01678877982982446 
-0.01406188724966841 
-0.004572795857335721 
-0.02601450564039351 
0.001643549902552513 
-0.02467301712435255 
-0.005361720305831053 
0.002573852353266208 
-0.01763935686545845 
-0.02531537745478557 
0.01270766421990392 
0.02751241831881005 
-0.02883870954540202 
0.02053223703069666 
-0.02474750841209626 
0.02428191045632813 
0.01178258151251646 
-0.004884848104897984 
0.01254221195323913 
-0.02868346798188307 
0.01578946202556986 
0.01666078158079456 
-0.01733261047090249 
0.01612264000995588 
-0.01670801789133861 
0.01303746040696781 
0.0177585940862723 
-0.00873793255022425 
0.02215336780181791 
0.01291483050363526 
-0.02688100383104882 
-0.01372623832565951 
0.01025676618770395 
0.02468057767088903 
0.01448519466170847 
-0.004601515670988973 
-0.00553252517353387 
-0.02107519063593623 
-0.01661602554004189 
0.01527796974849276 
-0.02001592338905018 
-0.009979433538082991 
0.02610341592603097 
-0.01165950453861023 
-0.02390091380338122 
-0.0337734294418759 
-0.007884299106894366 
0.01576443384858415 
0.01058161466416676 
0.01253968775390442 
0.03096811524049795 
-0.0005905796446967578 
0.009877974953334857 
0.01336226612015836 
-0.02890696128296523 
-0.02852877223322103 
-0.01307996398954317 
-0.03164044718219052 
-0.03322993935194792 
0.01681596483076042 
-0.0238101429266432 
0.004250007091497109 
0.002889953330560994 
0.00271373473129725 
-0.003291272391153868 
0.002725343799520495 
-0.00139113373212862 
-0.002702132208162905 
0.004002259479836192 
0.002945709252729897 
0.001959226893240297 
0.003995056368045676 
-0.003512928709772272 
0.004016098033885853 
-0.003258834000427122 
-0.003133972484493908 
-0.002701640213374614 
-0.002125471908362023 
0.001514548921605603 
0.004551608666531071 
0.0007543790379965674 
0.002226852377246331 
0.0008554054889446702 
0.004117627374689607 
-0.001585856735813805 
0.0004638108579674597 
-0.000740456264142283 
0.003085649759426655 
-0.004108372530905304 
0.002595389161156103 
-0.003154996691954838 
-0.001770211907143463 
0.003749908070865035 
0.002761615670836216 
-0.002517915873202808 
-0.003265502260004991 
0.005014136015860569 
-0.0002264452667747385 
0.001186478026050446 
-0.001863272831521802 
0.001576879346092799 
0.002049578708133103 
0.00251846593857105 
0.001420411910201355 
0.004014462350111078 
0.002177419212927575 
0.002167892229358074 
-0.003945546876752823 
-0.001565273643806804 
0.003409777620462491 
-0.001193368726017453 
-0.00509570677851359 
-0.001372069057467148 
0.004637485490248351 
-0.002865582470323745 
-0.002149338622116924 
-0.002817647615045485 
0.001184361502232281 
-0.002060851304117863 
0.002312247148332405 
0.004599026271481941 
0.002323931425853314 
0.004251146832929394 
-0.002456970249817587 
-0.001664019385635282 
0.002081619964581038 
0.002021285947104135 
-0.002300493137520927 
0.004081291173198471 
-0.003021105378513363 
-0.003315647760820697 
-0.003882333053568122 
0.002605837570997058 
0.00521729367409437 
-0.003206139886032102 
0.002273697570893185 
-0.00436151952200761 
0.00207303127113734 
0.003690784305625027 
0.001632269532945923 
0.001924833881567934 
0.001835823585149757 
0.003799842257942736 
-0.003675875847456524 
0.001203801038888024 
0.00189292591714627 
-0.002660590911588585 
-0.002017688271186173 
0.00119056152751687 
0.003407319278237516 
-0.005231008538871744 
0.0009771391311892319 
-0.00217823543866395 
0.003571689278765792 
0.001401784900015963 
-0.004005783777866518 
-0.000178393468525222 
0.002918256465024367 
-0.004216464403803856 
-0.001434291501654711 
0.005361114534315208 
0.001284975951223409 
0.001527756655886778 
0.002311888963406885 
-0.001405754148679342 
-0.0005820598250261534 
0.001780063667591318 
-0.002821016887102358 
0.001607000677399913 
0.003632628357062111 
0.003526462708382979 
0.002587395685082574 
0.003893903247607891 
0.003089881203060628 
0.001770011467971959 
0.00103628320442782 
-0.002438726769693159 
0.002634201340925568 
0.00402534994604739 
0.002381087616642292 
-0.003369530041194379 
-0.003619196070044081 
0.003947997491672722 
0.004751472975739256 
0.002136433122121945 
-0.004932566762678167 
0.002909899950636889 
-0.003627765093293686 
0.002191710947566043 
0.002332095958053068 
-0.00309898036788117 
0.001548920199330784 
-0.004314320441022612 
0.003062917468649839 
-0.002986660492835355 
-0.00322219255178288 
0.001239721935506091 
0.00334839786406389 
0.002579492361154687 
-0.004241220715108441 
0.00444859298235457 
0.005607649682683675 
-0.004070903149775188 
-0.002366852333015952 
-0.004039234181324844 
0.003221792908047129 
-0.005022850797177 
-0.00457805392056296 
-0.003034595881895227 
-0.001049574094746849 
0.004011424648309636 
-0.002196760492005654 
0.001616629576811385 
-0.0008084781764515444 
0.0002457497377003032 
0.001748744290410323 
0.003603686891163837 
-0.002983859522040013 
-0.00176984649224851 
-0.0003431185955546446 
0.004352207671410125 
-0.001273344008597815 
-0.00486731617996001 
-0.00278347409543509 
-0.001445601712918377 
-0.004790627817487896 
-0.00339062498269149 
0.003195762087222177 
-0.002436349669333287 
0.003808793236483655 
-0.001570000925380747 
0.001855284166316403 
-0.005176475137564616 
0.003577245974202459 
-0.003061395405947951 
-0.003900323465020802 
-0.003478147457397234 
-0.001932896595874263 
-0.002510399526517278 
0.004482515284444812 
0.003813279314827179 
-0.0007182771112049657 
0.003461339240858354 
0.006607706996943534 
-0.002759538812382809 
0.004868690728354859 
-0.00534191969286945 
-0.004168089273606866 
0.002573074304684121 
0.005215837338663441 
-0.005274444477713307 
-0.003154793168543066 
0.005704341359216952 
-0.004519922765890182 
-0.003136757178366886 
0.004956231019065937 
-0.003577071030506028 
0.003728017585201328 
-0.005406486092843716 
-0.001950444941999902 
0.002617553969566793 
0.005962515950488064 
0.004741022871160665 
0.003071240367703692 
-0.001266178725257169 
0.002205535375005611 
-0.005283072907895121 
0.005857633297166141 
0.003268676254550957 
0.00462545216662907 
0.005595464118170535 
-0.007704035191670685 
0.006752188203484146 
0.004092573167687919 
-0.01348174942416624 
-0.01028071945152772 
0.01218291960475186 
-0.01175541633818856 
0.01182376759754904 
-0.0109166431319708 
-0.01314417109906414 
0.00872320876682635 
0.01391934015789987 
0.01447049731378797 
-0.004503943295797188 
-0.00485550637720104 
-0.01442563397609761 
0.007336324510355343 
0.008669704526839298 
-0.00362599300364002 
-0.01865218008860842 
0.0003831377322378218 
0.02037684151939756 
-0.005607339907118713 
-0.009609704618620917 
-0.006953369299538689 
0.00050754542142554 
0.003644616991847009 
-0.01741652756136747 
0.01171094603384602 
0.00986582124260009 
-0.01134297662865914 
0.01489822256061003 
-0.01172231873172642 
-0.003864328173065082 
0.006905305130919292 
-0.00881707959204657 
-0.007261591610123336 
-0.006150991331210242 
-0.004222443170915482 
0.01366514982495773 
-0.01258641634777958 
0.01374825752330584 
0.00724182720319644 
-0.004313195387316512 
0.00617909127179416 
0.01369658005255855 
-0.01047115441060682 
-0.009955972440647285 
-0.00775855992491112 
-0.009024974017677474 
0.01046891167135503 
0.01036457278584133 
0.01273735631486568 
-0.02147877640432166 
-0.01916718828417975 
0.01103756561446891 
-0.007772354967786826 
0.01064274398435571 
0.01446896327858471 
-0.01590146681077261 
0.01362828555172307 
0.008698781219437453 
0.01316146767642432 
0.008423446780902337 
0.00939170251045462 
0.006649671926295223 
0.01722669051058604 
-0.009457934266538832 
0.0137428724610566 
0.01343127515639768 
0.009783643839802257 
-0.01326126082609624 
-0.01523414983464568 
-0.01686203409272865 
-0.01830096922106523 
-0.01066062525227486 
0.006077223520281854 
-0.005914281846456039 
-0.005926035137459596 
0.01091204685771634 
0.005043169498723319 
0.0101309344815498 
-0.01186512473567067 
-0.007958166050863004 
-0.006994518841411329 
-0.007093637303274008 
-0.004187843893272052 
-0.01041852370764504 
0.003924876495886751 
-0.01121295606560812 
0.01268738743122389 
-0.003635731075438083 
-0.01611646965852504 
0.010714112386953 
0.01037625415679608 
-0.01805622646123751 
-0.013061648091275 
0.01433900258411486 
-0.006968144204484797 
0.01141092124817609 
-0.01283189813470344 
-0.005093603530140245 
-0.00584407232853713 
0.00100347662967164 
-0.01750604586298514 
-0.009601864555786637 
0.01640243310276017 
0.01244819262283704 
-0.01808212312140722 
0.01013505336218298 
0.009171454164223342 
-0.0121769657909815 
-0.01190919073271179 
0.01024030310539592 
0.01102742527634379 
-0.01123775565346572 
0.009386373040459325 
0.004204935887250143 
0.0009634015150146615 
-0.01315091758839949 
-0.01021228538692186 
0.01844764879996266 
-0.01359530146231095 
-0.01366761609949636 
-0.01623978027540065 
-0.01664290342293157 
0.01488127819711051 
0.004700076460905614 
0.0079590438642155 
-0.00778796822724784 
0.01757743098213432 
-0.01449424492514785 
-0.008838016101390549 
0.002584042427992651 
0.005266526540469759 
-0.005974046046367173 
-0.006219491290131099 
0.01628064563589124 
0.009336119197921442 
-0.009858359051589827 
0.005750952970637715 
-0.004290693353450607 
-0.01051773527681415 
-0.02106195656944124 
-0.009712731060433097 
-0.005674595260438143 
0.0002372105925537455 
-0.01595099989779432 
0.00698676411074307 
-0.0101491092610195 
-0.002779934053504721 
-0.006066978217761173 
-0.003797743911552448 
0.008642760944013131 
0.01191293174152095 
-0.01894069377889863 
-0.01190931124738817 
0.01078527124951619 
-0.01287909284824628 
0.01145463464259953 
0.00501437990318487 
-0.01693800421217869 
-0.01388064794915439 
0.01357226177748556 
-0.01669114039404663 
-0.006810151601909628 
-0.01011856734321073 
0.01203481056628971 
0.01231587333952325 
-0.009466578667648716 
0.01769447017075373 
-0.0139646995495485 
0.01756457012237909 
-0.008933099071000974 
0.008791208978597236 
0.01255936935558593 
0.01838337871180435 
-0.003434566179617508 
0.01629544639317921 
-0.003737920134627908 
-0.008618266530416693 
0.0130383720421811 
0.01373293971918047 
0.01969337557663523 
0.009181988701967344 
-0.01781867337374862 
-0.0095365611514676 
0.0104343756639167 
-0.007054746050933988 
-0.00597110782080554 
0.01145579041722175 
-0.01127005475300757 
-0.007493145399270448 
0.008986591259520388 
-0.008998334831598431 
-0.01053564492399581 
-0.01730470626947844 
0.006453990885601745 
0.006165978497489593 
0.006224288163008182 
-0.01387052005125393 
-0.00161198312404821 
0.01886036258319158 
0.01813007474486916 
0.01723046534125599 
0.009839042492750654 
-0.002358448697025549 
0.01272149347339744 
0.01878281100018177 
-0.0110404879009927 
0.01510104254085115 
0.01399438425812686 
-0.00388932976878951 
0.004482674982336132 
-0.01471647476591308 
0.01523285294122498 
-0.01236132020150152 
0.0144125997307112 
-0.008679500037487154 
-0.006486958647219006 
0.01091336707655827 
-0.005833555284859055 
0.01154842266257436 
0.01041325721628708 
-0.01041219318832172 
-0.01068590612132395 
-0.009444237967946356 
0.009020131660228982 
-0.007834204654734925 
-0.003034322603932736 
0.0001439353430890733 
-0.01208758044426487 
-0.00554374781120432 
-0.01173294462737026 
-0.00840332743881564 
-0.009828050776750436 
0.004881379128813987 
-0.005369363657612911 
-0.001144629735953591 
0.001081576651648249 
-0.01651712808654541 
-0.0002620393371878927 
0.003399852170058375 
-0.006545041861773101 
-0.01105874082062353 
-0.00616252225319802 
0.01378355432823346 
0.01219778917203249 
-0.005398789648394069 
-0.0007098081184776395 
0.008192887043456878 
-0.01376887564064995 
0.0137874628913185 
0.01389711414151858 
-0.01160337929879035 
-0.009940281041025132 
0.01221432028681912 
0.009076623886676303 
0.01352131905750719 
0.007707031736859737 
0.006279592542379086 
0.01183609780397115 
-0.01007089290350448 
-0.001976824201490381 
-0.0102626667417625 
0.01303481685922779 
-0.006156521399828163 
-0.01817268951195241 
0.013197784968531 
0.006238354752662772 
0.01245652601833045 
-0.01191251965907912 
-0.009740789209637302 
-0.008418150744010812 
-0.009601925979395892 
-0.01195161151004177 
-0.001974485050497479 
-0.01248301903176975 
0.01628473924731807 
-0.01334206591661138 
-0.003123461527292937 
-0.005459480645042294 
0.01318853954906728 
0.007681824342887533 
0.01285735277814074 
-0.01437242869025939 
-0.01921983220488024 
0.00962753068304314 
-0.01074951260124811 
0.008798525385724777 
0.009839036661395345 
-0.007321608890854875 
0.01101337404259151 
0.002722595357239687 
-0.01291149768969773 
-0.02044785887440526 
-0.01036737416893171 
0.007270789601230542 
0.01039274445209555 
-0.009150674323958661 
-0.008745846671270952 
0.008572561145019737 
-0.0138905954637973 
0.009628235110764454 
0.007467662570949154 
0.006872852083597294 
-0.002271952106539684 
-0.005309273873697031 
0.01522908977326565 
-0.012604963556475 
-0.01590369827607081 
-0.006262968125907511 
0.01334002144344009 
-0.01712067025095828 
0.005620493500910441 
-0.01195506678244079 
-0.004790433311416702 
-0.01435920861901714 
-0.008750156237222724 
0.01044299751711939 
-0.009434983218314144 
0.01577984650942254 
-0.01192515076343517 
-0.008992115885540022 
-0.01143939264609318 
0.008742373904806004 
-0.005811167545557205 
0.01122801029247352 
-0.01276521036663407 
-0.006596429125404519 
-0.009544590150213885 
0.01372554283934967 
-0.008097733125690195 
0.007915602210949451 
-0.009103956615280084 
0.008893257696502628 
0.001400911387288007 
0.008447519004374413 
-0.007002621509613016 
-0.008669268730219216 
-0.007871926525957005 
-0.0148348015177847 
-0.009614570301490646 
-0.006655679194155921 
0.005673241025356912 
-0.006077820651065483 
0.00417017041598041 
0.01395641124986948 
-0.01385091892227568 
-0.0105048172697769 
-0.01411922502263552 
-0.00360569084856439 
-0.008083495094189526 
0.006794721252626802 
0.01007558209068686 
-0.01178569467873736 
0.01005362742670595 
-0.01852877694756191 
0.01188248817923839 
0.00967746729985222 
0.008068159407241213 
-0.008708157261260091 
-0.009622686381809544 
-0.008991096175875008 
0.009179014710759817 
0.01189947025216891 
-0.01203413685037303 
-0.01408433019246718 
0.01276534837537638 
0.009756756626744075 
0.009533693679683713 
-0.01280828619954374 
-0.01023531729660683 
-0.008637805458271645 
-0.01188826005472312 
-0.01459561642832337 
0.01349869573145086 
-0.01535782821566276 
0.00463879693472284 
-0.01339154729894935 
-0.006385991645723412 
-0.01541624673314712 
-0.006270004433601715 
0.005503012489937121 
0.02056112711992493 
-0.01896737572824993 
-0.01194098444812686 
-0.01711212692667375 
0.008013911086316747 
-0.008220477906722331 
-0.02048212780577044 
-0.001962943243313124 
-0.0166846644795976 
0.01157066422923647 
0.009714589707748546 
0.01300084727076846 
-0.0124436192852468 
0.006425715032466009 
-0.01936829151341794 
-0.01365106787940082 
-0.009835759439711754 
0.01389314065601111 
0.01373152386611147 
-0.00710138814637206 
-0.009383445700094266 
-0.01815633839166631 
-0.02056422240332289 
0.0003529233422189037 
-0.01006163115624589 
0.008228030094982863 
0.01507722806328373 
0.01022014294382206 
0.01955464530129486 
0.01104474867793839 
-0.02568260899914736 
-0.02247700413389052 
-0.01518727973321502 
0.01606976283504304 
0.0003440583214998347 
-0.02062412130754166 
-0.01197183659403806 
-0.01582500919001875 
-0.01883194288995823 
0.01825332005056531 
0.005685736939459054 
0.000345555813543155 
0.01301658920880329 
0.01340444353559344 
-0.01624376114729151 
-0.01044113264969161 
0.01035400714753568 
-0.004875671203859146 
0.004960617528536145 
-0.01015234022061764 
0.009436942553697928 
0.0105376629616897 
-0.003239237401379314 
-0.009544332793066252 
-0.01158227134760028 
-0.005517724999381424 
-0.002945204624857019 
0.009864997466473456 
-0.006429706789553447 
0.001715997203071205 
0.007431022416136871 
0.009244312672480567 
-0.005110073998831666 
-0.006674131740516828 
-0.008575621440285836 
0.006271589395974669 
-0.007457721276418577 
0.009298427649746968 
0.003206806318828981 
-0.0122250111048854 
-0.01715518176670431 
0.005839515707498771 
-0.009502771946265828 
0.009180020425172087 
-0.005153593986637364 
0.008013404924675938 
-0.01092408510761599 
0.008509767167268619 
-0.0005103687692875891 
0.007503072698548284 
0.005774673369006155 
0.005564644084196668 
-0.01173776132685539 
-0.005315809462348713 
-0.008578970970775257 
0.003912350939061788 
-0.0111831419009419 
0.0167538958848527 
-0.001755879105488948 
0.01127405895031966 
0.008021013288325943 
0.006139060378248275 
0.006126257443289119 
0.006767212028335674 
0.00907840167253147 
0.006589745225949481 
-0.01405778586310116 
0.008042379762934699 
-0.007874358201120809 
0.01422751951083374 
-0.006670533211155719 
-0.009102120904628848 
-0.008562442188530748 
-0.006622801235410416 
0.00530875429993901 
0.009958203905945484 
-0.0029650678732564 
0.007648266448113014 
-0.004593546735202369 
0.01043049664636523 
0.008665219048335709 
0.002745751280414227 
0.0070001216075921 
0.0003589413008976673 
-0.01405282376849033 
-0.0119257346764801 
-0.004626615962402004 
-0.01339393815462599 
-0.01043851631494302 
0.009894786750690356 
-0.009395583083034169 
0.0004539160016778573 
-0.005349164037201462 
0.003828599750655343 
-0.01022872358878057 
0.01522441224879389 
0.007730962064019296 
0.006425852263694278 
-0.01259032180080844 
-0.007498110409558938 
-0.01017492700351403 
-0.003279056908295253 
-0.01224892160543691 
0.005429019588693811 
0.01797675519606002 
-0.005715717783697852 
-0.009214060767409162 
0.008819375785388696 
-0.0104407096820532 
-0.001494675595895329 
-0.01295430022642192 
0.01389610959337737 
-0.006589556095658963 
0.0005679521395024575 
-0.01407026224216302 
-0.01472472574491812 
-0.008608525056994699 
-0.008076223394119352 
0.01095148470242731 
0.006016873074783667 
-0.005656954438736232 
0.01012465994323745 
0.005515805414402996 
-0.001141576243935352 
-0.01481231969928387 
0.01264510582890729 
0.01606051352800912 
-0.01126281259847096 
0.01061036402335358 
-0.009001780773828958 
0.01618436451714335 
-0.006050567812029435 
0.006621584425935963 
0.00678564319306045 
0.006178191882427021 
0.0002617563220769017 
0.009201875567355727 
-0.01114012088277213 
-0.006387355210973138 
0.008408261931678014 
-0.004680791780142129 
-0.00924453815155251 
-0.009134872128585639 
0.00965400309236035 
-0.009871690696096988 
0.002481531988233365 
0.0007834622179775042 
-0.00118296778705331 
-0.009679123016002921 
-0.01686997328860318 
0.01267069653730179 
-0.01223166856886303 
-0.0008655058397656262 
-0.0113040791562068 
-0.01286697606942847 
0.01293529700574135 
-0.004519428751387683 
0.01054289096610262 
-0.01294845254331818 
-0.01408613713509889 
-0.0002627043060716153 
-0.00910069027879307 
-0.01481074290080834 
0.006941072331841835 
0.003255218716549574 
-0.01081588081104655 
-0.006105498109957273 
0.02012154322894673 
-0.009216216425088344 
0.008695513327922358 
-0.005537315048784584 
0.01352860591910117 
0.006845347718768923 
0.01642690613472047 
-0.006025620690882518 
0.0171384659923329 
0.006981255229382772 
0.01516012505532668 
0.009894583819525607 
-0.01192520169060487 
0.006984138057068972 
0.01123690660813275 
0.01055662186406993 
-0.01113194532262908 
0.01169175154471131 
-0.008714235088520025 
-0.002033018056924399 
-0.01275883436273934 
-0.003678444926966957 
-0.01018236042650477 
-0.001549211111068756 
0.007323770185510856 
0.01495252802881652 
0.008140617690145737 
-0.008103097778195855 
-0.006828291976383002 
-0.009455354863707204 
-0.01155637118861738 
0.008234798160332858 
0.01506132245854323 
0.0109790724556366 
0.0193324885468495 
-0.01722394821856278 
0.0002853245220717796 
-0.02059526231887503 
0.009477710336176346 
-0.0118250205614264 
-0.01699942782143222 
-0.01385154482107883 
-0.0147443820773933 
0.001641185579542527 
0.0008292338864464716 
-0.01641536860386334 
0.01407774037221113 
-0.01712629245499008 
-0.005619863714537082 
-0.001761123340507479 
0.0151442878718218 
0.01105816895904624 
-0.01306074228741702 
-0.01125763590998475 
0.001697849830971461 
0.02096194182826758 
-0.002733028623779824 
0.0190395951199653 
0.01214282592694715 
0.01736083811816767 
0.0116145889131006 
0.001861978355683829 
0.002776104335202928 
-0.001577628496057301 
0.002352289024264122 
-0.002685075420992491 
-0.002423476460468331 
0.001146643497320258 
-0.0006017393523244985 
-0.003896580184412806 
-0.002328756456279913 
0.001485255114285775 
-0.002480209728417077 
-0.003181257656935981 
0.003134885585138934 
0.002379678280568428 
0.002022458225676745 
-0.002745293373238597 
-0.002055489293945078 
-0.00214744095938986 
-0.001782987910048868 
0.003372307568878373 
0.002764836626015404 
0.001511370249826733 
0.002619455203998984 
-0.0007917425967322304 
-0.001106144200159186 
-0.001433378113997666 
-0.001188015687627784 
-0.001542527794749249 
0.004123134284930325 
-0.002233260128618687 
-0.0003770222927361446 
0.003596322071638575 
-0.002534551253837228 
-0.0004541589262210997 
-0.002258877624801645 
-0.0005370195694826233 
-0.002903999873413127 
-0.002256485068313039 
0.001938591527840557 
0.001888795993383982 
-0.0009680741800236666 
-0.002064402143926336 
-0.003109412577488157 
-0.0006456680087994377 
-0.002406553867361963 
-0.002139510534845608 
-0.000730811348245279 
0.001401409506517954 
-0.001426736631578172 
0.003349498975804418 
-0.001595518693239266 
-0.002893866235272283 
-0.001072406894019664 
-0.001667759746009877 
0.0005300181284337033 
0.002906891867260953 
-0.002344308607996753 
-0.001159811620905632 
-0.00338952202131795 
-0.001993867995672248 
-0.003643515382011549 
0.001806424491494961 
0.000815242824991789 
0.002159374657948286 
-0.002433421873393596 
-0.001159787032024079 
-0.004157721650815671 
-0.0009773768925532946 
0.0009648013561538717 
0.0009907173812826733 
0.0008441390006971642 
-0.002124459102171291 
-0.001588703916303515 
-0.002455485559421469 
0.001519030324234805 
-0.003586830654021421 
-0.00195038175076107 
0.001914358213178074 
0.0001060992744921946 
-0.002624452651201379 
-0.003230046626574303 
0.002127795342030069 
0.00230451743174869 
-0.002879488676447191 
0.002673349075709924 
0.0002888920237631831 
0.002845055932592457 
0.001965392023785833 
0.00201933147118311 
-0.001869838731072433 
0.00314166279083466 
-0.001024336225868827 
0.002113912318581141 
0.003792731375718191 
0.004018835714734527 
-0.002057956309551784 
0.001047108579499269 
0.002112601114042625 
-0.002352239433446683 
-0.002498183277533988 
-0.0004063079665301823 
-0.002167828859685844 
-0.002698801568834954 
-0.002500830724992876 
0.0007857751764661436 
-0.001873076761188885 
-0.001309795901748547 
0.001846893514203054 
-0.003178861152133885 
0.002544082506900337 
-0.001744186181161495 
0.002479792822958462 
-0.002936608174495895 
-0.003560181226624615 
0.00241074570067978 
-0.0001668555337252519 
-0.00446333675029306 
-0.002600029963275241 
-0.002346444487662513 
-0.001986613613512476 
0.002397969201198025 
-0.0001730438165736624 
-0.001741181683157925 
-0.0026954689857219 
-0.002255602869295404 
0.001871508211651395 
-0.002566008232780528 
-0.002175967876668957 
0.002618813730617693 
-0.001650296561969062 
0.002127147235482115 
-0.0006925527007670168 
-0.002707068875634863 
0.001934987167124139 
0.003252875908810947 
-0.004773733609718359 
0.0005554943114396758 
-0.001087874211665417 
-0.001676015025639462 
-0.003279199169067476 
-0.002583365577722487 
0.002504719024118209 
0.002032275986589701 
0.004395214808980102 
0.00347351714260616 
0.00136988868638268 
-0.002996692333583633 
0.002339264206235464 
0.002364041258334529 
-0.001287560603793396 
-0.001879329626297342 
-0.001807670409151331 
0.002339845555913789 
-0.00222829780318337 
0.001576420652291636 
0.00245024980416545 
0.0007887140337579362 
-0.003336588233663989 
0.0006406287216227005 
0.001916810808329047 
0.003674482144426209 
-0.001603641795481849 
-0.002776734571076592 
0.003697182735940381 
0.001467058370044416 
-1.490105659929015e-06 
0.002442482779056415 
0.0002501956601770481 
0.001862519432564552 
-0.002010410912879052 
0.002338341576487687 
0.003223737464589802 
0.002643532457015013 
0.001998073635938624 
0.003179525000304009 
0.002446831852440405 
-0.002736524047489879 
-0.001918137891162123 
-0.002796907804605267 
-0.003618009027816181 
-0.003556515490893571 
0.00339040678370219 
0.002502443155479066 
-0.002749765494293933 
0.0009905024654678989 
0.002743955721074025 
0.001753988725881692 
-0.002002908959314776 
-0.002704776679200854 
0.004480779415252383 
-0.003746676236563599 
0.003320793351782417 
0.004018254553360384 
-0.004850617174531565 
0.001281301822289033 
0.0005988897147689318 
0.003637676148298674 
-0.001756403830277493 
0.003358426896194553 
0.004237733166765218 
-0.0032689598679833 
-0.003670877309912172 
-0.004295404311026141 
-0.00398846751057068 
0.004654294065172609 
-0.003139483904923497 
0.002087359946804257 
0.003939262959677346 
-0.003855172301351326 
-0.004981802016264636 
0.002981742949627221 
-0.001157545592678572 
-0.004844447406236261 
-0.004390154115869919 
-0.0025529039868331 
0.0004572931339157397 
-0.009035115910830678 
0.001829318513924191 
-0.004085439462692818 
0.00429864809960596 
-0.001369055665128149 
-0.003030010608249585 
0.004923773762234327 
0.005178128247828413 
-0.008132198573729287 
-0.002510886350533478 
-0.003390174938734035 
0.006543913883277853 
0.0008428183202062719 
-0.006118253519370662 
0.003709682476869445 
-0.004388935556988873 
0.002908020841946066 
-0.003116256839214189 
0.0008903361880224834 
0.006843366612991986 
0.004338903403141983 
-0.004331398691832593 
-0.0002490096596964771 
-0.0004893328353355922 
-0.00263270501515331 
-0.006525639630605514 
-0.001162992285064232 
-0.005794367410912323 
-0.0007210840158599095 
0.008282544908844943 
0.004227600761713047 
-0.006984385500912578 
-0.00799220794812816 
0.003286187683945461 
-0.001486195541815901 
0.001797543847603127 
0.004167087864374881 
-0.003249752306893775 
-0.002175744365679431 
-0.00359737028205266 
-0.002696815129797641 
-0.003494117875222261 
-0.001052027036134543 
-0.00303328092949606 
-0.0007717091213524575 
-0.004211907855657439 
-0.006075150181901782 
-0.003311062982232824 
-0.002182654521720453 
-0.007338675712815884 
-0.01203302111772393 
0.002495414404249449 
-0.005791535899152842 
0.002039728780613857 
0.003241417745129304 
-0.002357427043575433 
-0.0007269153711687891 
-0.004294146196118251 
0.004546683534208834 
0.005887283254511458 
-0.001286114743541874 
-0.004333813796228393 
0.004057015444537609 
0.008422361565679354 
-0.00228541223524215 
-0.005664755139922175 
0.003984055713671149 
-0.0001355028145554129 
-0.007536461678397356 
-0.001991803981386341 
-0.004352003931600401 
0.001111035881154667 
-0.008010719779934708 
-0.008913331942774935 
-0.004299093032016028 
0.004680296309319384 
-0.0002199222762802552 
0.004844218622729642 
0.0006157874274259822 
0.001509395929074671 
0.003273153487153681 
-0.000596959730540203 
-0.00651523275094815 
-0.005361495118326874 
-0.005545417911364783 
0.000778406044167685 
-0.01294262002173823 
0.004479928997121181 
-0.000497168621842644 
0.004809534693244978 
-0.006511609632705488 
-0.002299614695475436 
-0.007003380168938702 
0.004812227418748108 
-0.0008918124928081814 
-0.002432126607892925 
-0.0007867979475926935 
0.005894118574826016 
-0.007641258519681312 
-0.0001896240119341444 
-0.00289874252391948 
0.007914542264932807 
-0.002523551859885855 
-0.0008223631892430394 
0.0006970040172474224 
0.001316462282840344 
0.006596275760759896 
-0.001378134696587054 
-0.0003635239686564054 
-0.002595839527052966 
-0.0001775196733409929 
-0.003563347433881513 
-0.0005387431723280453 
-0.002111658353970376 
-0.0008988057456623551 
-0.002410452529291626 
0.0003658949005357407 
-0.00994715659769132 
-0.004077137848085842 
-0.004392313175173032 
-0.0005898565566384568 
-0.004766392966020315 
-0.003240628957134523 
0.003367936579317347 
-0.006921925173874383 
-0.001231020001394325 
-0.006205887321331013 
0.004101426317650622 
-0.0007402717017467571 
-0.0100698020513047 
-0.006736042267938651 
0.000421343217193518 
-0.007216090030594425 
-0.005604014576753824 
-0.001181067931493677 
-0.002216068965154374 
-0.008552042160715872 
-0.001532479008902477 
-0.005683624919755433 
-0.0008512406438681417 
-0.001152009899232509 
0.005947386450544549 
0.001559231517653024 
-0.001286757456086167 
-0.004223669468490968 
-0.01114412741262635 
0.005210339099526581 
-0.003231300538046908 
-0.001488934918161502 
0.002380513379243287 
-0.001192310978907707 
-0.007538963329824865 
0.00312293286633956 
0.005018081064399416 
-0.008777380696996269 
-0.0008100531981859948 
-0.007507619406282618 
0.008281540943839264 
-0.0007328050400307574 
0.003647238574815371 
-0.006620039311157621 
0.003468736269510204 
-0.004330857979411577 
0.0009280809959087782 
-0.0009654025445889035 
0.002767494460575936 
-0.004752193810221704 
-0.00798333534664719 
0.0009878873759566465 
-0.004580359416739103 
0.00377609665718557 
-0.001595232410139571 
-0.001812945040109409 
-1.311831409211053e-05 
-0.005797687104300413 
-0.0016674231796193 
-0.002765504802144546 
0.0008039020902276783 
-0.003109721833698038 
-0.005671828525317218 
0.004874993989129274 
0.006937159881186597 
0.003824046531240915 
0.005623932445514598 
-0.001766638247601597 
-0.007639007422153575 
-0.003562420442765911 
-0.004763990253254547 
-0.00473810467265992 
-0.007508477393027064 
-0.008791006630568018 
0.002432684085460453 
0.002218425901780968 
0.005431302369918727 
0.005491260608177764 
-0.006997102909327204 
-0.002472491929665775 
-0.0009794105291226387 
0.003648325150687925 
0.003556262920316755 
0.009616637905704663 
-0.001782976538906015 
-0.0007447832269707269 
-0.004615375636287118 
-0.008516587471843256 
0.004399414794046695 
-0.004003831880497918 
0.01109266764581059 
-0.002189432257401336 
0.003861680640565596 
-0.002874294080840727 
-0.003964826916729374 
0.006721292243441861 
0.002508433075057719 
-0.0004495757239214583 
0.001066328920975846 
-0.006199248712068874 
0.004957761913841387 
-0.00708011633409782 
-0.005798553352131548 
-0.006979740437652035 
-0.009231385724031841 
-0.00805781419416624 
-0.005671773856361198 
0.003327777906198255 
-0.0003261690840617644 
0.0001704899745161386 
-0.005621429044680496 
-0.007547449701205878 
-0.0004857656981038955 
-0.003763100315608671 
-0.006635638186608873 
-0.0062543835933788 
-0.005722831065282133 
0.002102261999593413 
-0.005268735846617783 
-0.002022636446473373 
-0.004586539292716943 
0.00591262107646407 
-0.006554257541324744 
-0.004989891709700761 
0.005582118323515257 
0.004670404386930421 
-0.005784538855917717 
0.006917583049522137 
-0.004726541678217943 
-0.006774973367873282 
-0.0008694226153427178 
-0.007454976457474687 
0.005925823653640395 
-0.0008347001017237601 
0.005084011922549691 
0.0058742480372325 
0.00713962181621175 
0.004214330200652748 
0.0009616618273475124 
0.0060871009614718 
-0.005796931457841638 
0.005159267117838863 
-0.003606545725252672 
0.003969312492422219 
0.006225184247940647 
-0.004302695254568834 
-0.01082717653503687 
-0.001163158527285163 
-0.009842563465086156 
-0.009652233470402616 
-0.0007072811006545366 
0.004845489955376233 
-0.000460588044043767 
0.005536369202953484 
0.005484681235766638 
-0.004477220721337227 
0.004643197421222803 
-0.00813637032531726 
-0.001781595090833342 
-0.003558109418975312 
-0.004886808120606554 
-0.006277004003757474 
0.0009582030075406781 
0.006079836356217253 
0.007171240202210536 
-0.000932082277543221 
0.003922016799243276 
0.00355683429594777 
0.004463487102070774 
-0.0008749756206248535 
0.001151607341337686 
-0.006779490724452561 
-0.002700630755657438 
-0.003417835583884684 
0.007408566061220887 
0.004755004717859094 
-0.009541110386122566 
-5.468567257263101e-05 
0.0005762545316234747 
0.005275527237389014 
-0.009244910580778237 
-0.007777448267892111 
-0.005469764045750993 
0.006462968645856786 
-0.005605156842069578 
0.004764019604409601 
-0.006506562303117887 
0.005355750747401353 
-0.005589891908899014 
0.004646112710120222 
0.004348353260203905 
-0.009830934965086208 
0.005200656134036186 
-0.005340216599994028 
-0.005940825398308018 
0.0070525015622756 
0.005209913993724564 
-0.006532930331175068 
0.006104034536964 
0.0009446732062909278 
-0.003251281336850391 
-0.004651957088789291 
0.004032750543367203 
0.005069337316914895 
-0.006889145862222855 
-0.004086496784599573 
0.00451994900547049 
0.002900707204712297 
-0.008129946115551977 
0.004097931975171031 
0.006258569340219513 
0.002712888288814016 
0.005647840807902494 
0.004093497423837138 
0.003015883178121273 
-0.003719694039231495 
0.00659916189288077 
0.006197041738462973 
0.006437623631899292 
0.00100975845717813 
0.00374918378616403 
0.003467826237919626 
0.001521246312144121 
-0.008885817275885518 
0.007989465267347885 
-0.007321470687734055 
0.004517017485967461 
0.00687766334048414 
0.0006993513321377567 
0.003153970546538836 
0.005382873547214013 
0.007490900521855039 
0.005791069196349621 
-0.004605464470425636 
0.0008094842522863584 
-0.0001718912491968624 
0.006200064713055097 
-0.005031543914401026 
0.005664825213375136 
-0.005062787149874941 
0.0055818378353249 
-4.088975499362868e-05 
-0.001071731088533992 
-0.0007881101969157017 
0.005556210972527478 
0.001916298499467849 
-0.005718742702075078 
-0.009963414416292478 
0.002521182968980878 
0.003064821661279982 
-0.0003760454435326522 
0.005924781590446697 
0.004627151086440849 
-0.0119611799865896 
0.003691344468045729 
0.005131494316287772 
0.002603075121314851 
-0.003260772207777985 
0.003823801419939432 
0.00155496685313713 
-0.009422554656365819 
-0.004352837135084785 
0.004728425011604201 
0.007827735349155254 
-0.01608174899150193 
-0.008823885949963094 
-0.01417921256345498 
-0.009577934228627079 
-0.006944887204484903 
0.004774454328788566 
-0.006169641949273142 
0.004387516982620733 
0.00702449278521301 
0.004299535048748441 
-0.01044425397980994 
-0.003674571303419151 
0.0007214529462724514 
-0.005564559918301711 
0.004335431705758842 
0.00683416220739394 
0.00601764981131081 
-0.006933437532714429 
0.00555676436814629 
-0.009754148455892923 
-0.01055779824281424 
0.005033478758092512 
-0.009281578142960472 
0.005744808860305769 
-0.006770449791181674 
0.006953902091035411 
-0.009692745839518504 
-0.001045481048232561 
0.005374640062274895 
0.006579833476952469 
-0.01057017859889201 
-0.004796136182530276 
0.006929705270938236 
0.004004226663252329 
0.002210367503285 
-0.007498072116992409 
-0.01409273511925238 
-0.0005398328582567647 
-0.0161316249622158 
-0.002340103058845303 
0.0007267202151444519 
-0.007108066991985831 
-0.01379123072436207 
-0.002409401524686456 
-0.007323576584514602 
-0.02675535911702158 
-0.01966699996781615 
-0.007456061089562139 
-0.01343963731991061 
0.007765400882202476 
0.01194560560283064 
-0.02043060195026118 
0.008011774477731574 
0.01432591313523152 
-0.01156568541807375 
0.009502423619975378 
-0.01514675259133235 
-0.01151656674603599 
0.01457164567043367 
0.01438250682726122 
-0.01580243173729085 
-0.01670648230110727 
-0.02111233481422571 
0.01453353504219099 
-0.0127836689387288 
-0.01795857769529118 
-0.01570864177353092 
-0.02251505178349586 
-0.006965311332075744 
0.01664041460048574 
-0.01080230191707429 
0.006169914079187556 
0.0133256094431727 
-0.0151577069866586 
-0.0135526396556282 
0.01684715947160676 
-0.02138822478654325 
-0.006536160707637677 
0.006997256273971827 
-0.01440273774261283 
-0.01397858672783808 
-0.02677704864871445 
0.01631218005037358 
-0.01770829592543407 
-0.01217645574177048 
-0.01565931550524416 
-0.007809878767306914 
-0.01584683400915478 
-0.01412203107081015 
-0.01153502065304647 
0.0106999550225341 
0.01905565700502808 
-0.01405092119163155 
0.01398526090836761 
0.00924740173576619 
-0.01252374171843378 
-0.0234478991348556 
-0.02041394371192881 
-0.02677031848717396 
0.01927549599011668 
-0.01579975164639089 
-0.02415037140835467 
-0.01449497889840272 
-0.008105606038492714 
-0.0143541197896176 
-0.01813202475008445 
-0.01479235469373434 
0.004183457839376478 
0.01260256686944305 
-0.01044685320924962 
-0.01367411067428237 
-0.02276244431117593 
0.007119266692992065 
-0.0172495354281441 
0.00812215931242952 
0.0179183203507808 
-0.02322588000039553 
-0.02127656521757479 
-0.01085970266867873 
0.02279438303295968 
-0.02601387896407631 
-0.01145358694242903 
-0.0122414566931275 
-0.01594111847184491 
-0.01102922172253594 
-0.02019018294601649 
0.01588296275410648 
-0.005325438390613245 
-0.002997054509342942 
-0.008071766683635287 
-0.02328908411680337 
0.01312390908315089 
0.02101702481051526 
0.006777046803442609 
-0.01056360432891678 
-0.01423825464720037 
-0.01870082991967934 
-0.01803896487200918 
-0.008901852725470895 
-0.02939754465244681 
0.0128597214746672 
-0.02370905832614887 
0.007612592548875413 
-0.0188042128516794 
0.009259574884351987 
0.01884721326572708 
-0.02115935886343651 
0.01222946898164053 
0.01370561709825923 
0.01184673808362475 
0.01622051736503032 
-0.01963514132997864 
-0.01089262883329479 
-0.01191003005911925 
-0.01328434210792282 
-0.01487100101651414 
-0.01115331451853698 
0.01855254788434303 
-0.01674746273367595 
-0.01705155080772511 
0.01576391213666252 
-0.02296577745068423 
-0.01256422220947398 
-0.0009179567912000118 
-0.01875481582961491 
-0.02273331397010893 
0.01167022101463987 
0.01929497116182025 
-0.01187199601600963 
-0.01960032736127058 
-0.01218618360869675 
-0.004776910106887645 
0.006878624347839044 
-0.02219659602747966 
0.02003118210210842 
-0.01736207047792294 
-0.0199066725585813 
0.01450456953410073 
-0.01121750996534733 
-0.02081027060922575 
-0.01504722146389232 
-0.01544208818981991 
0.02287725980963756 
0.02104753057392111 
0.006740253672742723 
-0.005824839158078873 
0.01413486238503181 
-0.005285178713560741 
-0.01193001061494959 
-0.0154697459192929 
-0.01516667327858153 
0.01654991818620426 
-0.01019181810730173 
0.01228677137771876 
0.02175633414425754 
-0.01418133439927337 
0.006805081238468558 
-0.01239806201627469 
0.01231050538258292 
-0.01455052294647682 
0.01626820385620421 
-0.02137742045142696 
-0.0236146144730803 
0.009028066579776284 
0.01831989158028552 
-0.01334686823208675 
-0.01213274740118831 
0.008605893949479334 
-0.01239179758564487 
0.004523829772428549 
0.01640631756290992 
-0.01853268784318907 
-0.01205805784736409 
0.02696271744672109 
-0.02312175220994401 
-0.01815994838935953 
-0.01516714756214665 
0.007374168256903378 
-0.007270372853704467 
-0.01848347198189617 
0.01991631373269198 
0.0161557768808771 
0.01729733077128376 
0.007666393021712155 
0.02534619888889214 
0.02003402236090086 
0.02272467345656925 
-0.01475609765896586 
0.01887249724483234 
0.01982834190650223 
-0.004733546982539755 
0.01504045786924806 
0.01637306017731232 
0.00706909040747979 
-0.006094507463038862 
0.01526560883026602 
-0.0001900524221708368 
0.01135104022678026 
0.02757390879427112 
-0.03112470034828007 
-0.0002694823819148914 
0.03187716599711322 
0.01457675860276849 
0.01709544925049035 
0.01366836484551802 
-0.01939864021898747 
0.007749443572778238 
0.02811220820046016 
-0.01405104248382197 
-0.007050937009646228 
0.01559035000979115 
0.006707770691130141 
-0.02432860639461355 
0.005343806771079195 
0.003793331422179474 
-0.006742976915671971 
-0.001074713243638953 
0.002015491967138189 
-0.006619215146273966 
0.004924201103389213 
0.006064319508497345 
-0.000661722082275833 
0.005592919159818363 
-0.007137564708437288 
-0.004683559146993212 
-0.0004351733453903325 
0.001495810329043809 
0.003264189479178244 
0.001478233360682529 
-0.001432379664482217 
-0.004096124157836023 
0.004508465511839223 
-0.003270381115055957 
-0.002671103615158985 
-0.004510597649718661 
0.003092494843844546 
-0.001981129928466575 
-0.004134322159219073 
0.0002565107264087992 
-0.004207357551920666 
-0.001468540627671992 
0.003690192629588343 
-0.0004397400741112263 
0.003070435604225096 
0.006702554349427839 
-0.004416875329680307 
-0.004560511718620546 
-0.0007114452714806074 
0.000627667939164528 
0.004000900652562654 
-0.0001469406292367595 
-0.0102233039271565 
0.005079541605569903 
0.0004476511822910177 
-0.000401095196533006 
-0.003206380629891432 
0.005439245453363462 
0.001471700396140736 
-0.002713076350022727 
0.001741975696593753 
0.003563318471483479 
0.0007856540300596016 
0.003347897126798382 
-0.004916828520872197 
-0.003035251247265675 
-0.00484157060428388 
0.003634676183262707 
-0.003783692774989427 
0.0009123598563745492 
0.002196799251536182 
-0.007148212568852791 
0.002236160705492608 
-0.0006609139050246498 
-0.0004386876116672287 
-0.006789545730411662 
-0.004609555943688857 
0.001430394428161936 
-0.004408023915456959 
-0.001959520626503833 
-0.0002456291258346645 
0.004634591507057959 
-0.0005953364756007212 
0.0028327124355397 
-0.006063155569977692 
-0.0005428225941236272 
-0.00711011496397031 
-0.005112847585795078 
0.002199484104709645 
-0.0006545956801421064 
-0.005828600576631611 
-0.001937950151648522 
-0.002433333601252607 
-0.002197203097188635 
-0.0003139184756396151 
-0.007513492552971211 
-0.00334755764473015 
-0.006736940491034729 
0.0001371423972897596 
-0.01176151749086973 
-0.002537439183959324 
-0.0003023894002476846 
-0.002779162127845707 
-0.001776882675418981 
-0.0042525329643093 
-0.007161963682185171 
9.835844188742244e-05 
-0.000239032016384474 
-0.005747742420783157 
-0.004918037943963258 
-0.005126365833672123 
-0.006888960230745522 
-0.0003915325513404847 
2.914725199739312e-05 
-0.00508847776882374 
-0.006390888234776278 
0.003423804656368108 
-0.003382723778704231 
-0.002802292636030026 
-0.007117955221183097 
-0.006924398543228645 
-0.002219210316259268 
0.004997379753052893 
-0.002661378469531856 
0.002194132086807155 
-0.00550445011339927 
-0.001535463788117327 
-0.0008193364242699656 
0.0008808624709984225 
-0.001045411655104385 
-0.005749825186520978 
-0.003672211256736392 
-0.001648281853007158 
-0.0006402081715670183 
-0.001822638088985025 
-0.004730467443801136 
-0.005264554376104296 
-0.0007979234931972496 
0.003135417044839143 
-0.002094757968608809 
0.006447283466346962 
-0.002389658693774203 
-0.0002377387189662197 
-0.002125913296401442 
-0.004308169342175788 
-0.007384425805270208 
-0.0056375669317408 
-0.002064252909825057 
-0.008220065241144974 
-0.01255661384582398 
0.003151745690109988 
-0.00652996994646326 
-0.0114713873488879 
-0.004555172335321225 
0.005424746760280484 
0.001514561319309963 
-0.006064287630421657 
0.004128159096982374 
-0.003368509412787189 
-0.00520133971466227 
-0.004877550844053708 
-0.00160200781327833 
-0.002831658126499854 
0.0002333823077934661 
-0.00459025726767263 
-0.0004240746240201972 
-0.004057449345967217 
-0.004488171617850282 
-0.0009162266280798672 
-0.008873808960276452 
-0.006968347330028057 
0.001158714791566659 
-0.005645829573456462 
0.004595792584510329 
0.005183645876221675 
-0.005890222451965643 
-0.005852515547888857 
0.002043515857129954 
0.00442174334509216 
-0.001486413245747432 
-0.006206316703460257 
-0.004851714052465165 
-0.00402430363082378 
-0.005817623439019665 
-0.007423373816135235 
0.002816751870275414 
-0.005975751717795021 
-0.005550089021345706 
-0.002429205196072431 
-0.006429016940220407 
-0.008251504604535777 
-0.001857821303970698 
-0.003406875065635369 
-0.007723805047270198 
0.004422316372940513 
-0.004969405964122158 
-0.0006113005882728201 
-0.005497140315141079 
-0.00358078104809145 
-0.006631411620280998 
0.007065472051510631 
-0.00693808104094689 
-0.003668097867296136 
-0.0002206155272372258 
-0.01080709218108202 
-0.006920431860969035 
0.0009030170532771728 
0.006855927352327313 
-0.003178583385242672 
-0.00617096119622252 
-0.003502553416622831 
-0.001559083401228179 
-0.006208992518032991 
-0.005234930313621147 
-0.0008172144912623194 
0.002926009746965291 
-0.004861312754871346 
-0.00333845849509543 
0.003468797936092595 
-0.01152050368838353 
0.003503804242336585 
0.0001350146329268046 
-0.003353194718717989 
0.002979588628300296 
-0.006143461496478396 
-0.0071852704430837 
-0.008834303471843897 
-0.01361187767291197 
0.009009954001429883 
0.008054319657308139 
-0.02047777761471001 
-0.01304056424302022 
-0.01126370479583322 
-0.009458263932492295 
0.01737891065454095 
0.005322010999381795 
0.01230015045058243 
-0.009063203216811427 
0.01304061089386269 
-0.009278409384485625 
-0.0110296493552586 
5.98383553128121e-05 
-0.005902527583559931 
-0.01758240551696981 
0.01492688483822424 
0.02284785811617019 
0.01100665126743442 
-0.009633556805619337 
0.01613628071629441 
-0.01468364345801005 
-0.01015475206917339 
-0.009977003029190249 
0.01100247407324816 
0.01905226160121023 
-0.02285602201360262 
-0.01337062867242831 
0.01495230876985691 
0.004793749700370117 
-0.008567225454912111 
-0.01553049853392889 
-0.007937531216967003 
-0.01533372994547031 
0.01815855663922581 
0.02032275997523493 
0.00969406255954725 
-0.0179505902935461 
0.01721329161111431 
0.01737604784784131 
0.00229129184501621 
0.02210554291314469 
0.007048139514126048 
0.008943798830478727 
0.01102135561298129 
0.01184142727396645 
-0.007124236173986292 
0.009850764683192563 
-0.003037934351032545 
0.007644708543860556 
0.01468650937476585 
-0.008378979392237456 
0.01499464440939938 
0.01461981111025693 
-0.01506618425384275 
-0.01704714774570988 
-0.01132785670185726 
-0.002702298741951601 
0.01936325322243107 
-0.00135123630676453 
-0.001023875731029279 
-0.007898928033579241 
-0.01685884784018788 
-0.006145601020741224 
-0.02253676697315208 
-0.01446577002841757 
-0.003838539684536349 
0.008636679423561501 
0.01159965695031818 
0.01871505142900664 
-0.01150642057655557 
-0.01776011023865261 
-0.02133897549214658 
0.005927124629009805 
0.008234175565964379 
0.01463841235617821 
0.005250980730351817 
0.01516711101898671 
-0.02430449568419644 
-0.01257177303708494 
-0.01094210749433361 
-0.01264376345091518 
-0.01679792261743475 
-0.01544188137108495 
0.01116614894281481 
0.01363473192063853 
-0.02643590736551862 
-0.008960396033958861 
-0.004007251970386576 
-0.01415914803610819 
0.01409900888005069 
0.01455340363599941 
0.01036408528453751 
0.007930241245316863 
0.01821464650215682 
-0.00723752599552061 
0.01896114939580814 
0.02262990771268763 
-0.006506642387064129 
0.007137059713067538 
0.01376227065887009 
0.009943882097306875 
0.01282486590895795 
0.01339583606640052 
-0.01222623996582749 
-0.01446539448913568 
-0.008283813811760155 
0.01445092806288541 
-0.004991628287311746 
-0.006775682460678842 
0.0222055172235882 
0.01733974105217418 
7.751056914413695e-05 
0.02070250871814574 
0.02112841535962548 
-0.01346253666345156 
-0.01945835407486444 
0.007642521008105685 
-0.01820575640660992 
-0.0008732351554436632 
0.007844104157885791 
-0.01797526625667115 
-0.01624638214712434 
-0.01763912749881631 
0.001091914478339831 
0.00713715884610779 
0.002061180684577888 
-0.01179933655134695 
-0.01227307507912628 
0.01741146905501553 
0.0126846482492568 
0.01530296915745895 
-0.006448294040221991 
0.02003867578243735 
-0.01092124679260865 
-0.01243047307783846 
0.01466210981788244 
-0.02038533352775537 
-0.01676335667570583 
0.01139392401372176 
0.01235342726771244 
0.01308982597764155 
0.01907529467716627 
-0.002918721670505625 
-0.01821904567660184 
-0.0009233095866165426 
0.01206561994892865 
0.02182934737780896 
-0.002885854912821777 
-0.0009511093095913089 
0.01133411102480454 
-0.01426256517872606 
-0.01639405694399449 
-0.007009206664784824 
0.007393396956655899 
-0.02902430681211687 
0.006908710642419677 
0.0159060277081382 
-0.001948182819566033 
-0.0123890098090502 
-0.01917152447998744 
-0.01695909972314409 
0.008515957345307504 
0.01945138599402735 
0.01404895252607927 
-0.008424822397619701 
-0.004818777585788063 
0.009404020665409097 
0.01491602840966719 
0.0006720131609356883 
0.01521481228292739 
-0.01947786889978411 
-0.004549535164144131 
-0.02356164632902465 
-0.0173325560449196 
-0.01093721343220138 
-0.01472478794604142 
0.01682599242934957 
-0.02807919184421533 
0.02739247744778893 
-0.01466238622412408 
0.01866350535813231 
0.01388045979075642 
-0.009341937724248642 
0.0129936097813161 
0.008728611711898537 
-0.02027743634923219 
-0.02891939995259609 
-0.01396577096389725 
-0.01331623456762113 
-0.0134802554309361 
-0.01007674330790737 
-0.0180817506921815 
-0.02153133013339336 
-0.03088874505214581 
0.007017086186456693 
-0.01549089663375523 
-0.01091348914626274 
-0.03161343323434363 
0.007446388037375769 
-0.007946487401207401 
0.02315098362783636 
0.01692546291069439 
0.01704365904020709 
-0.006089262936452566 
0.0119296331318826 
-0.007369247370536725 
-0.02270215509490848 
-0.02248681169600601 
-0.01541639679335707 
-0.01870352245080396 
-0.002782032709685759 
-0.03165544853810113 
0.004168609459353478 
0.003067196869486544 
0.003939419118513055 
0.003940812618053367 
0.003068040763788994 
0.006865394946428299 
-0.004517949628113586 
-0.0034738151370111 
0.004344190401432779 
0.005981594930193028 
-0.003011019827793667 
-0.004640512082103064 
-0.004167464181170814 
-0.002131129297941352 
-0.003513515489900228 
0.002138532932425388 
0.002180753111132738 
0.004258357321991809 
0.004973421241009341 
-0.004255268647463206 
-0.002817078960713614 
0.004333570725901268 
0.001541414807696608 
-0.004111694848403282 
0.005797116700561949 
0.006401716867206357 
-0.005086413857801417 
0.005305872832902382 
-0.0003432649656100617 
-0.004753365912638789 
0.009085908570599101 
0.0004077168948647489 
0.004986811976583632 
